tree
version=v4
num_class=1
num_tree_per_iteration=1
label_index=0
max_feature_idx=13
objective=binary sigmoid:1
feature_names=X Y month day FFMC DMC DC ISI temp RH wind rain temp_rain_ratio wind_rain_interaction
feature_infos=[1:9] [2:9] [0:11] [0:6] [-2.0435866048542968:1.9426616441347768] [-1.7384315616109105:2.3101798179908641] [-2.1196872649280829:1.2625696740114123] [-2.1833871739914894:2.1603259463182174] [-2.4786675297036824:2.3682880215174338] [-1.8463497601902177:2.4692058657154603] [-2.0585441358537881:2.3987609985126137] none [-2.4786675297036824:2.3682880215174338] none
tree_sizes=1687 1790 1998 1883 1903 1791 1793 1897 1902 1797 1905 1788 1799 1803 1799 1796 1790 1805 1793 1592 1383 1486 1796 1596 1384 1482 1273 1921 1906 1381 1694 1282 1799 1793 1275 1167 1379 1687 1480 1799 1386 1487 1387 1809 1490 1703 1283 1176 2011 1590

Tree=0
num_leaves=15
num_cat=0
split_feature=8 0 9 9 10 7 3 0 6 9 8 9 9 10
split_gain=12.5467 15.2433 6.65875 4.00395 3.61795 3.85032 3.39262 3.09425 3.05141 4.46963 3.51271 3.61474 1.57185 1.04845
threshold=0.16512640732601727 3.5000000000000004 -1.1799772003077231 -0.29148045379773074 -0.11561625677099749 0.79405416366887371 4.5000000000000009 4.5000000000000009 -1.881935448329195 1.6124411458665391 -0.28414576497968308 -0.10108829383130384 0.72394439935654653 -0.37276847606136676
decision_type=2 2 2 2 2 2 2 2 2 2 2 2 2 2
left_child=1 3 -2 -1 6 -6 7 -4 -3 10 12 -12 -10 -5
right_child=2 8 4 13 5 -7 -8 -9 9 -11 11 -13 -14 -15
leaf_value=-0.090839376375283498 -0.034129486267899529 -0.024376237695453194 0.021981386049088742 -0.05337281873445851 0.06589469944431367 0.019136030993678079 0.04896026470598653 -0.02057687172800329 0.021981386049088752 -0.034129486267899529 0.029180289836309346 -0.025774999532578478 0.056972073956637913 -0.0243762376954532
leaf_weight=5.2180656641721752 5.0797583609819403 8.8492375016212446 9.4048928618431145 6.1510329544544229 9.2204831242561358 8.4258231371641141 5.1343532502651206 7.8240653425455085 9.4048928618431109 5.0797583609819403 5.1804556846618652 7.0840002447366732 4.8722974061965934 6.320883929729459
leaf_count=20 20 35 38 24 38 34 21 31 38 20 21 28 20 25
internal_value=-3.63689e-08 -0.0153466 0.0197955 -0.0540635 0.026642 0.0435682 0.0132859 0.0026547 0.00157679 0.00883974 0.0170635 -0.00256211 0.0339225 -0.0386771
internal_weight=0 58.1606 45.0894 17.69 40.0096 17.6463 22.3633 17.229 40.4706 31.6214 26.5416 12.2645 14.2772 12.4719
internal_count=413 231 182 69 162 72 90 69 162 127 107 49 58 49
is_linear=0
shrinkage=1


Tree=1
num_leaves=16
num_cat=0
split_feature=12 0 9 9 0 0 10 6 5 7 9 2 6 5 10
split_gain=11.3285 13.7724 6.01185 3.63197 3.33948 4.41859 3.03341 2.75445 4.16635 6.79372 4.91853 2.64632 1.42924 1.28315 0.948096
threshold=0.16512640732601727 3.5000000000000004 -1.1799772003077231 -0.29148045379773074 5.5000000000000009 7.5000000000000009 -0.11561625677099749 -1.881935448329195 0.51357823849067519 -0.44332405457958896 0.15276791945726542 3.5000000000000004 0.52305446537204958 -0.19537285670086021 -0.37276847606136676
decision_type=2 2 2 2 2 2 2 2 2 2 2 2 2 2 2
left_child=1 3 -2 -1 6 -6 11 -3 9 10 -9 -4 -8 -11 -5
right_child=2 7 4 14 5 -7 12 8 -10 13 -12 -13 -14 -15 -16
leaf_value=-0.086478649510475125 -0.032432584912586361 -0.023160891921458693 -0.0020471701546867726 -0.050740887511540489 -0.016821990139571589 0.03467075037165681 0.039634584539493471 0.02543485416976082 -0.028797964188763198 0.024782424511704353 -0.037458578350892724 0.043328062160247011 0.076628322774801583 0.056465523392133898 -0.0231608919214587
leaf_weight=5.207315772771838 5.078279420733451 8.8479232192039472 6.2500313222408295 6.1466546058654794 8.5612125992774963 8.1151903718709946 5.3932581096887589 5.6806504279375094 6.0798041671514502 5.6798260360956201 6.8656741082668304 6.613220289349556 5.0608920007944107 7.3066045194864282 6.3199451565742466
leaf_count=20 20 35 25 24 34 33 22 23 24 23 27 27 21 30 25
internal_value=0 -0.0145861 0.0188132 -0.0514082 0.0253203 0.00823578 0.0375389 0.00149844 0.00840025 0.0172578 -0.00898206 0.021281 0.0575434 0.0426084 -0.0367592
internal_weight=0 58.1344 45.0721 17.6739 39.9938 16.6764 23.3174 40.4605 31.6126 25.5328 12.5463 12.8633 10.4542 12.9864 12.4666
internal_count=413 231 182 69 162 67 95 162 127 103 50 52 43 53 49
is_linear=0
shrinkage=0.05


Tree=2
num_leaves=18
num_cat=0
split_feature=8 9 8 5 5 7 3 7 4 7 8 6 7 8 9 6 8
split_gain=10.2354 5.43077 3.5882 4.98082 3.84621 4.64659 5.4279 4.37719 3.21158 5.81546 4.15491 3.80082 2.93502 2.34642 2.31845 1.03691 0.481143
threshold=0.16512640732601727 -1.1799772003077231 -1.8393186691148002 -1.1845130521560205 0.37792472597111015 -0.44332405457958896 2.5000000000000004 -1.0000000180025095e-35 0.33626309603470023 -0.50777083678002966 1.236467741285765 0.1624877766473122 0.020692777263584403 -0.87165552876406072 1.2316568259336851 0.58829986618890662 0.700797074305891
decision_type=2 2 2 2 2 2 2 2 2 2 2 2 2 2 2 2 2
left_child=2 -2 -1 13 5 6 -5 -7 9 -3 11 -10 -11 -4 -6 -9 -13
right_child=1 8 3 4 14 7 -8 15 10 12 -12 16 -14 -15 -16 -17 -18
leaf_value=0.026895405916211087 -0.030836702085419679 0.00071291456804090504 -0.021282851240737765 -0.05528625562961257 -0.0599751156685022 0.056115122729077628 0.0083880164788176868 -0.010634575667180624 0.034169581928971245 0.081480140716719163 0.048654036816516817 -0.0074905750022652082 0.03259558055959861 -0.066806359423126044 -0.01222224588733904 0.018035230380636241 -0.0286428323933429
leaf_weight=4.9380736649036399 5.0741362124681464 6.4845041930675533 5.0489078760147095 6.6649831533431989 5.1386644095182401 4.8617914021015158 6.7229060977697372 8.0261107385158592 4.9149217307567623 6.7268069982528669 5.368693694472312 5.0024514496326429 5.6490239500999451 6.4423253983259183 5.029646173119545 5.1952093988656989 5.8119109719991684
leaf_count=20 20 26 20 26 20 20 27 32 20 28 22 20 23 25 20 21 23
internal_value=0 0.0178892 -0.0138737 -0.0176628 -0.00962055 -0.000982733 -0.0233114 0.0155483 0.0240767 0.0390692 0.0106744 -0.00228873 0.0591665 -0.0468047 -0.0363547 0.00063099 -0.0188583
internal_weight=0 45.0324 58.0686 53.1305 41.6393 31.471 13.3879 18.0831 39.9583 18.8603 21.098 15.7293 12.3758 11.4912 10.1683 13.2213 10.8144
internal_count=413 182 231 211 166 126 53 73 162 77 85 63 51 45 40 53 43
is_linear=0
shrinkage=0.05


Tree=3
num_leaves=17
num_cat=0
split_feature=8 0 9 4 9 0 0 6 0 6 3 7 4 8 6 6
split_gain=9.24925 12.381 4.90747 3.78802 3.71993 3.32813 3.00964 4.00274 3.00384 3.17943 2.86161 2.79102 1.89864 2.71543 1.5398 0.89533
threshold=0.16512640732601727 3.5000000000000004 -1.1799772003077231 0.21727061099025127 -0.10108829383130384 2.5000000000000004 5.5000000000000009 0.60304573076980639 5.5000000000000009 0.58829986618890662 3.5000000000000004 -0.41754534169941265 0.33626309603470023 0.87359406365423753 -1.774674433364021 0.60304573076980639
decision_type=2 2 2 2 2 2 2 2 2 2 2 2 2 2 2 2
left_child=1 5 -2 4 -3 -1 11 10 -6 14 -8 -4 -13 -14 -10 -5
right_child=2 3 6 15 8 -7 7 -9 9 -11 -12 12 13 -15 -16 -17
leaf_value=-0.02719151332190814 -0.029332813438989642 0.019043127528020634 0.0041638796648019285 0.044215370345716432 -0.048789656706417744 -0.07070059992813757 0.0014686678853444886 -0.026794866936332165 -0.003007865682788853 0.026270628798634621 0.053111829828465421 0.067192660613333885 0.054578213256945896 0.005832034302265054 -0.042051081976461242 0.014053683523547848
leaf_weight=9.105545848608017 5.0677301585674277 9.6499335467815417 5.7115733027458218 4.8867884278297407 5.8787182569503811 8.4964030683040619 5.9826228767633456 5.8139388859271994 5.0061983019113541 4.9322429299354544 4.8626744896173477 6.0096914172172573 6.316743001341818 5.2159795016050339 5.0958190858364087 4.9554278552532196
leaf_count=36 20 39 23 20 23 33 24 23 20 20 20 25 26 21 20 20
internal_value=0 -0.0131951 0.0170157 0.00205142 -0.00663632 -0.0481932 0.0229005 0.00667908 -0.0184857 -0.00663615 0.0246238 0.0345216 0.0444057 0.0325315 -0.0227027 0.0290294
internal_weight=0 58.0071 44.981 40.4051 30.5629 17.6019 39.9132 16.6592 20.913 15.0343 10.8453 23.254 17.5424 11.5327 10.102 9.84222
internal_count=413 231 182 162 122 69 162 67 83 60 44 95 72 47 40 40
is_linear=0
shrinkage=0.05


Tree=4
num_leaves=17
num_cat=0
split_feature=8 0 9 4 9 9 4 7 0 8 9 7 5 4 8 8
split_gain=8.36397 11.2282 4.43734 3.42185 3.3593 3.13628 2.88698 5.02921 3.81338 2.87673 3.77078 2.70779 2.43032 1.91667 1.88472 0.135129
threshold=0.16512640732601727 3.5000000000000004 -1.1799772003077231 0.21727061099025127 -0.10108829383130384 -0.29148045379773074 0.33626309603470023 -0.50777083678002966 5.5000000000000009 -0.45694275432802944 0.53355223939011942 0.020692777263584403 -0.46345003620380981 -1.0000000180025095e-35 0.87359406365423753 -0.14590817350100591
decision_type=2 2 2 2 2 2 2 2 2 2 2 2 2 2 2 2
left_child=1 5 -2 4 -3 -1 7 -4 14 10 -6 -9 -12 -7 -8 -5
right_child=2 3 6 15 9 13 8 11 -10 -11 12 -13 -14 -15 -16 -17
leaf_value=-0.078890667331989184 -0.027913114315471072 0.018091450434793495 0.00040235591571185646 0.021752349078070526 -0.040963533615345472 -0.013739769412108549 0.045814056869917803 0.076352450467651989 -0.014877206728072787 -0.047262369969900145 0.036954229217675744 0.029265782460825476 -0.012511174651173655 -0.053089632764556187 0.005541781925890308 0.03347487435692266
leaf_weight=5.1210654377937344 5.059416562318801 9.6496759504079836 6.4813894778490093 4.9256073385477066 5.0928526967763927 6.5308924913406381 6.5596657097339648 6.6782203465700132 9.2837925255298597 5.8689320832490912 4.9126247465610504 5.6248607635498047 5.021081328392027 5.8814181387424442 5.2147412598133087 4.9079112112522107
leaf_count=20 20 39 26 20 20 26 27 28 37 23 20 23 20 23 21 20
internal_value=0 -0.0125578 0.0161954 0.00194988 -0.00630874 -0.0459683 0.0217965 0.0360469 0.00908468 -0.0175769 -0.00598265 0.0548248 0.0119515 -0.0323852 0.027978 0.0276031
internal_weight=0 57.9121 44.9021 40.3787 30.5452 17.5334 39.8427 18.7845 21.0582 20.8955 15.0266 12.3031 9.93371 12.4123 11.7744 9.83352
internal_count=413 231 182 162 122 69 162 77 85 83 60 51 40 49 48 40
is_linear=0
shrinkage=0.05


Tree=5
num_leaves=16
num_cat=0
split_feature=8 0 4 10 3 0 0 4 0 0 5 5 4 6 5
split_gain=7.56826 10.2007 3.09177 3.0006 3.62642 2.95919 2.80123 2.54067 2.39758 3.01821 2.53153 2.00908 1.75895 0.815699 0.412437
threshold=0.16512640732601727 3.5000000000000004 0.21727061099025127 -0.11561625677099749 4.5000000000000009 2.5000000000000004 4.5000000000000009 0.37592725771618413 5.5000000000000009 6.5000000000000009 -1.0117163159703841 0.45463355745538786 -0.3776918142319986 0.60304573076980639 0.31898004493582294
decision_type=2 2 2 2 2 2 2 2 2 2 2 2 2 2 2
left_child=1 5 8 4 6 -1 14 -5 10 -10 -3 -9 -11 -4 -2
right_child=3 2 13 7 -6 -7 -8 11 9 12 -12 -13 -14 -15 -16
leaf_value=-0.024108034407274777 0.021126510490235929 -0.0016721936917545488 0.040774024091026352 0.051658665459030223 0.038649994822743214 -0.065330836075374529 -0.028160720200262026 0.031410081377180814 0.025399565345531623 0.0062345097026495436 -0.050588990953883022 -0.0091881064898092103 -0.034119432545415211 0.011956317025672951 0.00069972642214009015
leaf_weight=9.0628461688756943 4.9247570931911522 5.4947254508733749 4.872880354523657 7.9065081328153637 5.6031285971403113 8.3780230134725571 8.5879883617162687 7.8356564939022046 9.1208087801933306 5.4771838933229446 5.0995542109012622 4.9867487847805023 5.3263822197914106 4.949980154633522 4.9599337130784988
leaf_count=36 20 22 20 33 23 33 34 32 37 22 20 20 21 20 20
internal_value=0 -0.0119595 0.00185367 0.0154218 0.00341548 -0.0439101 -0.00727184 0.0293667 -0.0059993 0.00421991 -0.0252183 0.0156211 -0.0136608 0.0262521 0.0108768
internal_weight=0 57.7824 40.3415 44.8047 24.0758 17.4409 18.4727 20.7289 30.5187 19.9244 10.5943 12.8224 10.8036 9.82286 9.88469
internal_count=413 231 162 182 97 69 74 85 122 80 42 52 43 40 40
is_linear=0
shrinkage=0.05


Tree=6
num_leaves=16
num_cat=0
split_feature=8 0 9 9 9 8 5 8 8 9 9 6 6 7 8
split_gain=6.84591 9.27361 4.07053 2.89106 2.71872 3.73763 6.18978 2.54157 2.53663 3.41361 3.06101 2.4673 5.03874 2.24233 0.393399
threshold=0.16512640732601727 3.5000000000000004 -1.1799772003077231 -0.29148045379773074 1.802833305832966 -0.88893522769889544 -1.0117163159703841 -0.28414576497968308 1.236467741285765 -0.73572882705272702 -0.48187261376415769 0.67313908706531544 0.48184684380350812 -0.082422074257120795 -0.59518034580670653
decision_type=2 2 2 2 2 2 2 2 2 2 2 2 2 2 2
left_child=1 3 -2 -1 5 -3 -7 -8 9 -4 -11 12 -12 -9 -5
right_child=2 4 8 14 -6 6 7 13 -10 10 11 -13 -14 -15 -16
leaf_value=-0.074002618608250165 -0.027574991231642112 0.034839852031519861 -0.015317177687806219 -0.018606053711066689 -0.032491231166461902 -0.047989648161165764 0.030975506982682484 -0.024366509005166726 0.047876562272131634 0.055956009084413783 0.027145138337594434 0.043110060731764398 -0.03299473718933537 0.019148535902937806 -0.03666213249787794
leaf_weight=5.0084269046783474 5.0562123954296103 8.8333524614572507 7.5021288096904746 5.2630055844783792 5.064872369170188 5.8743906021118155 8.5815235674381274 6.5473563373088837 6.7927730083465567 5.5340168774127951 8.7705355435609871 5.3001863509416571 5.7769517153501502 5.4039254486560839 7.0677973777055714
leaf_count=20 20 36 30 21 20 23 35 26 28 23 36 22 23 22 28
internal_value=0 -0.0113912 0.014676 -0.0419673 0.00176247 0.0066855 -0.00273228 0.0102158 0.0200603 0.0143143 0.0230726 0.0139039 0.003263 -0.00469062 -0.0289555
internal_weight=0 57.6447 44.7328 17.3392 40.3054 35.2405 26.4072 20.5328 39.6766 32.8838 25.3817 19.8477 14.5475 11.9513 12.3308
internal_count=413 231 182 69 162 142 106 83 162 134 104 81 59 48 49
is_linear=0
shrinkage=0.05


Tree=7
num_leaves=17
num_cat=0
split_feature=8 9 10 10 4 9 3 8 5 5 9 9 5 5 5 8
split_gain=6.19541 3.6816 3.09383 2.61409 4.49406 2.7244 2.54758 2.52641 2.22869 4.4032 3.50469 1.9674 2.43819 1.86049 1.65117 0.648739
threshold=0.16512640732601727 -1.1799772003077231 1.6844492782615879 -0.11561625677099749 0.37592725771618413 -0.54533666708629991 4.5000000000000009 0.95999255832841091 0.51357823849067519 -0.46345003620380981 0.53355223939011942 0.21623197277940778 -0.09767002923141184 -1.1505996740261293 -0.020153736363088998 -0.076789377761667624
decision_type=2 2 2 2 2 2 2 2 2 2 2 2 2 2 2 2
left_child=2 -2 8 6 -5 -6 7 14 9 10 13 15 -13 -1 -3 -11
right_child=1 3 -4 4 5 -7 -8 -9 -10 11 -12 12 -14 -15 -16 -17
leaf_value=-0.052395926364278728 -0.026250857466904046 -0.035989769643417088 0.023543377137914285 0.064416095916497135 0.03985580830943547 -0.011579400225217727 0.038858705749221345 0.026868275911986407 -0.038898177551044771 0.035469679858789002 0.0038634619857604111 0.015952622464568772 -0.030753221683810179 -0.01687997544513728 0.0018475915977831945 0.0097277749221124539
leaf_weight=9.6240860372781736 5.0459538400173178 5.0698013603687313 5.869521662592887 7.0454666465520885 4.8635418564081201 5.4699896275997135 5.0738436579704276 5.390789881348609 8.071314722299574 4.8829371482133865 6.9671029001474372 5.4201468825340271 5.7676437497138959 5.9777323901653281 6.6854900866746929 4.9072508066892677
leaf_count=38 20 20 24 30 20 22 21 22 32 20 28 22 23 24 27 20
internal_value=0 0.013972 -0.0108544 0.0190974 0.0336235 0.0126289 0.00773609 -0.00147367 -0.0147658 -0.0102929 -0.0256215 0.00619816 -0.00812565 -0.0387882 -0.0144708 0.0225668
internal_weight=0 44.6449 57.4877 39.5989 17.379 10.3335 22.2199 17.1461 51.6182 43.5469 22.5689 20.978 11.1878 15.6018 11.7553 9.79019
internal_count=413 182 231 162 72 42 90 69 207 175 90 85 45 62 47 40
is_linear=0
shrinkage=0.05


Tree=8
num_leaves=17
num_cat=0
split_feature=12 0 9 9 4 9 0 6 4 12 0 10 2 4 6 6
split_gain=5.60707 8.42749 3.33286 2.68265 2.60972 3.16908 2.45444 2.94135 2.42078 3.43494 3.35248 3.30613 3.77341 1.66929 1.18414 0.738465
threshold=0.16512640732601727 3.5000000000000004 -1.1799772003077231 -0.29148045379773074 0.21727061099025127 -0.10108829383130384 5.5000000000000009 0.58829986618890662 0.33626309603470023 1.236467741285765 5.5000000000000009 -0.11561625677099749 7.5000000000000009 -1.0000000180025095e-35 -1.774674433364021 0.60304573076980639
decision_type=2 2 2 2 2 2 2 2 2 2 2 2 2 2 2 2
left_child=1 3 -2 -1 5 -3 -7 14 11 10 -10 12 -4 -5 -8 -6
right_child=2 4 8 13 15 6 7 -9 9 -11 -12 -13 -14 -15 -16 -17
leaf_value=-0.070897788441833684 -0.024996808621799347 0.018699473965027375 -0.0070562125284606746 -0.0097246716865499964 0.038507776355430678 -0.043537734666308649 -0.0035136778335948717 0.026392551930975297 0.016473894878036244 0.041293447328789507 -0.029925468072216067 0.060093078218573542 0.050083855788955051 -0.046667804731605221 -0.037818343386759982 0.011041647085749584
leaf_weight=4.906066998839381 5.0344407707452765 9.6191789954900759 7.2104445844888705 6.4815046936273584 4.8488195389509183 5.8275223076343563 4.9966991394758224 4.9189493656158438 8.316556930541994 5.3117541521787635 7.3190079480409613 6.5013083070516577 4.8212013095617294 5.7886878699064228 5.0661056935787183 4.9409786611795425
leaf_count=20 20 39 29 26 20 23 20 20 34 22 29 28 20 23 20 20
internal_value=0 -0.0103303 0.0133157 -0.039648 0.00219068 -0.00503372 -0.0160045 -0.00529477 0.0182013 0.00655559 -0.00524565 0.0313641 0.0158404 -0.0271533 -0.0207843 0.0246454
internal_weight=0 57.3945 44.5147 17.1763 40.2183 30.4285 20.8093 14.9818 39.4803 20.9473 15.6356 18.533 12.0316 12.2702 10.0628 9.7898
internal_count=413 231 182 69 162 122 83 60 162 85 63 77 49 49 40 40
is_linear=0
shrinkage=0.05


Tree=9
num_leaves=16
num_cat=0
split_feature=8 9 10 10 7 9 9 5 5 9 9 5 8 8 8
split_gain=5.08063 3.01821 2.74851 2.30034 2.75715 2.43945 4.02207 1.9739 3.95719 3.18399 1.75063 2.19514 1.70621 0.715779 0.560212
threshold=0.16512640732601727 -1.1799772003077231 1.6844492782615879 -0.11561625677099749 0.79405416366887371 -0.73572882705272702 -0.22801640047558847 0.51357823849067519 -0.46345003620380981 0.53355223939011942 0.21623197277940778 -0.09767002923141184 -0.95805402343823387 -0.35326456071902168 -0.076789377761667624
decision_type=2 2 2 2 2 2 2 2 2 2 2 2 2 2 2
left_child=2 -2 7 5 -5 -3 -7 8 9 12 14 -12 -1 -14 -10
right_child=1 3 -4 4 -6 6 -8 -9 10 -11 11 -13 13 -15 -16
leaf_value=-0.014040456437556546 -0.023807755735671732 -0.016545497846267434 0.022615611227372635 0.050457336171918443 0.01039831273530617 0.04177969501411382 -0.010951469361345225 -0.036357610521478907 0.033795910398927528 0.0041663016210593011 0.015633738247357188 -0.028769482360184818 -0.06206291515534737 -0.035344280290186124 0.009828907039432136
leaf_weight=5.4552371054887763 5.0219085812568656 7.476281851530076 5.8518839776515952 8.8766296207904833 8.3226470947265607 8.2072798162698728 6.4645891934633264 8.0077124238014203 4.8675663620233536 6.9630413502454749 5.4083711206912994 5.734720438718794 5.0447668433189365 4.9821428656578073 4.8851595669984871
leaf_count=22 20 30 24 38 34 34 26 32 20 28 22 23 20 20 20
internal_value=0 0.0126951 -0.00985089 0.017354 0.031073 0.00670043 0.0185458 -0.0135509 -0.0093371 -0.0239146 0.00632125 -0.00721809 -0.0365438 -0.048787 0.0217908
internal_weight=0 44.3693 57.2006 39.3474 17.1993 22.1482 14.6719 51.3487 43.341 22.4452 20.8958 11.1431 15.4821 10.0269 9.75273
internal_count=413 182 231 162 72 90 60 207 175 90 85 45 62 40 40
is_linear=0
shrinkage=0.05


Tree=10
num_leaves=17
num_cat=0
split_feature=8 0 9 9 8 5 9 8 4 8 4 7 6 7 4 0
split_gain=4.59861 7.69097 2.73222 2.55627 3.46397 4.76541 2.48799 2.25298 3.28747 2.16218 3.48395 4.09196 3.27569 2.20114 1.49782 1.15885
threshold=0.16512640732601727 3.5000000000000004 -1.1799772003077231 1.802833305832966 -0.88893522769889544 -1.0117163159703841 -0.29148045379773074 -0.28414576497968308 0.21727061099025127 1.236467741285765 0.33626309603470023 -0.50777083678002966 0.1624877766473122 0.020692777263584403 -1.0000000180025095e-35 4.5000000000000009
decision_type=2 2 2 2 2 2 2 2 2 2 2 2 2 2 2 2
left_child=1 6 -2 4 -3 -6 -1 -7 -9 10 11 -4 -12 -13 -8 -14
right_child=2 3 9 -5 5 7 14 8 -10 -11 12 13 15 -15 -16 -17
leaf_value=-0.068108971784465899 -0.022679190513107392 0.034493534179632322 -0.0076031469502867242 -0.030688219797081057 -0.04168715293644918 0.029216736147646756 -0.0090928883949538374 -0.030389782827275405 0.022198019857073311 0.042380352014900112 0.028177397812813067 0.066043890359065952 -0.0050157942024314636 0.021764097712250623 -0.044196009864851171 -0.03788105749313677
leaf_weight=4.7899109721183804 5.0085633099079123 8.8066384941339475 5.6972182393074027 5.0507401376962653 5.8136142194271079 8.5372319370508212 6.4686113595962533 6.0249948948621768 5.864696279168129 6.7092110514640799 4.8676699697971335 5.7469434738159197 5.4215322434902173 5.4854402095079422 5.7312981337308857 5.3085080981254578
leaf_count=20 20 36 23 20 23 35 26 24 24 28 20 25 22 23 23 21
internal_value=0 -0.00937885 0.0120972 0.00256715 0.00735966 -0.00174679 -0.0375728 0.00962046 -0.00445038 0.0165364 0.0112057 0.0269126 -0.00584233 0.0444194 -0.0255837 -0.0212753
internal_weight=0 57.0877 44.2451 40.0979 35.0472 26.2405 16.9898 20.4269 11.8897 39.2365 32.5273 16.9296 15.5977 11.2324 12.1999 10.73
internal_count=413 231 182 162 142 106 69 83 48 162 134 71 63 48 49 43
is_linear=0
shrinkage=0.05


Tree=11
num_leaves=16
num_cat=0
split_feature=8 0 10 1 5 5 0 4 0 5 0 0 7 4 6
split_gain=4.16886 7.01423 2.46489 4.31016 3.57414 3.0648 2.33415 2.11826 2.01053 2.65703 2.26246 1.66653 1.82264 1.56906 0.700632
threshold=0.16512640732601727 3.5000000000000004 -0.11561625677099749 3.5000000000000004 -0.027420888819494296 0.64196459855383481 2.5000000000000004 0.21727061099025127 5.5000000000000009 -1.0117163159703841 6.5000000000000009 2.5000000000000004 0.79405416366887371 -0.3776918142319986 0.60304573076980639
decision_type=2 2 2 2 2 2 2 2 2 2 2 2 2 2 2
left_child=1 6 3 -2 -5 -6 -1 8 9 -3 -10 -4 -13 -12 -9
right_child=2 7 11 4 5 -7 -8 14 10 -11 13 12 -14 -15 -16
leaf_value=-0.018457957427533991 -0.034960686586528109 0.0024671156813817594 0.04573939895586962 -0.016167716915666465 0.058535352199577097 0.0058786159180646254 -0.055748292857793459 0.036283784726755385 0.023656387969824895 -0.047932832351435251 0.0085656912520852575 0.032588228402546882 -0.0035493630733859343 -0.02968640524519231 0.0094672648266289697
leaf_weight=8.9110677689313906 6.2665104866027859 5.4313671588897705 6.2878903001546886 6.4804021120071473 5.2024869024753517 5.8939780741930008 7.9315101802349082 4.8154439032077772 9.078577324748041 5.0431376844644564 5.4470379948616028 7.0638782829046232 6.8948235660791397 5.2788892686367017 4.9286967217922211
leaf_count=36 25 22 27 26 22 24 33 20 37 20 22 30 28 21 20
internal_value=0 -0.00894887 0.0115367 0.000642653 0.013336 0.0305663 -0.0360187 0.0024427 -0.00408267 -0.0217988 0.00528732 0.0243661 0.0147383 -0.0102605 0.0227197
internal_weight=0 56.8657 44.09 23.8434 17.5769 11.0965 16.8426 40.0232 30.279 10.4745 19.8045 20.2466 13.9587 10.7259 9.74414
internal_count=413 231 182 97 72 46 69 162 122 42 80 85 58 43 40
is_linear=0
shrinkage=0.05


Tree=12
num_leaves=16
num_cat=0
split_feature=8 0 9 9 8 6 9 4 0 3 7 3 7 5 4
split_gain=3.77619 6.3951 2.35012 2.30103 3.08363 4.34852 2.24402 6.03496 2.36755 3.49546 3.1876 2.17302 3.17468 1.98635 1.35043
threshold=0.16512640732601727 3.5000000000000004 -0.29148045379773074 1.802833305832966 -0.88893522769889544 -1.8138620734831241 -1.0530490936634387 0.69324055116804961 5.5000000000000009 3.5000000000000004 -0.41754534169941265 4.5000000000000009 -0.36598791593905994 0.48773947420123404 -1.0000000180025095e-35
decision_type=2 2 2 2 2 2 2 2 2 2 2 2 2 2 2
left_child=1 2 -1 4 -3 -6 7 -2 10 -10 -8 12 -7 -12 -4
right_child=6 3 14 -5 5 11 8 -9 9 -11 13 -13 -14 -15 -16
leaf_value=-0.064826642780704408 -0.044949161625279149 0.032491293393671176 -0.0072582189972574072 -0.029271396692281678 -0.043479009220747183 -0.027655494504328866 -0.0028581302897419439 0.030368234385195775 -0.017806470712590193 0.033084509766651067 0.060798540422994929 0.036731939997694772 0.017643817801613584 0.022443005795648611 -0.040771282155027122
leaf_weight=4.6247947365045574 5.5684904754161817 8.7935373783111555 6.4357885569334039 5.0364681780338278 5.0370408594608298 6.5254004746675536 5.5949406623840323 5.0914411097764969 8.7012530118226987 5.5112785398960105 6.8954709023237246 5.077135205268859 9.4964950084686315 6.6125057935714722 5.6404114663600895
leaf_count=20 22 36 26 20 20 26 23 21 35 23 30 21 39 28 23
internal_value=0 -0.00853443 -0.0345182 0.00232366 0.00687933 -0.00173788 0.0109918 -0.00897575 0.0173807 0.00192783 0.0288777 0.00822712 -0.000805694 0.0420225 -0.0229111
internal_weight=0 56.6671 16.701 39.9661 34.9296 26.1361 43.9754 10.6599 33.3154 14.2125 19.1029 21.099 16.0219 13.508 12.0762
internal_count=413 231 69 162 142 106 182 43 139 58 81 86 65 58 49
is_linear=0
shrinkage=0.05


Tree=13
num_leaves=16
num_cat=0
split_feature=5 1 9 5 6 6 9 9 9 8 7 10 5 5 10
split_gain=3.53831 4.08581 4.41457 5.37389 3.16133 3.76362 3.56892 2.38754 3.0002 2.71167 3.34777 2.0872 2.99005 2.83074 1.9606
threshold=-0.3205293712278397 2.5000000000000004 -0.1645523471534461 -0.09767002923141184 0.63556743210576283 0.48669479928216003 -0.60880072040844235 0.53355223939011942 0.089303866135123061 -0.75933748568763559 -0.67533247050117573 -0.11561625677099749 0.64196459855383481 0.48773947420123404 1.0000000180025095e-35
decision_type=2 2 2 2 2 2 2 2 2 2 2 2 2 2 2
left_child=7 -2 4 -4 5 6 -3 8 9 -1 -11 13 -13 -5 -12
right_child=1 2 3 11 -6 -7 -8 -9 -10 10 14 12 -14 -15 -16
leaf_value=0.022572901626448996 -0.028298547897796518 0.00025604726903040112 0.039291271282594423 -0.0047589707379294688 0.0029745272628781093 0.077986387418377365 0.054716286422049204 0.0099417952093408223 -0.050031147062643833 0.010848886374609547 -0.059169374940791164 -0.023105369549853389 0.024835688449696698 -0.056021520723533461 -0.01702709101079217
leaf_weight=4.7688206583261517 7.1902832090854636 6.595316722989085 6.4517689496278789 5.8523835986852681 8.9533942341804487 4.6546777784824362 5.5311705321073559 9.1144206374883634 6.256207436323165 5.7532137185335221 5.0463220775127393 6.3745831996202433 6.6404265761375427 4.9885305464267731 6.0913250595331192
leaf_count=20 29 27 27 24 37 20 24 37 25 24 20 26 28 20 25
internal_value=0 0.00718471 0.0117372 -0.00119395 0.0269664 0.0397669 0.0250966 -0.0122774 -0.0195318 -0.0107224 -0.0201227 -0.0121431 0.00135478 -0.0283478 -0.0361212
internal_weight=0 63.2325 56.0423 30.3077 25.7346 16.7812 12.1265 37.0303 27.9159 21.6597 16.8909 23.8559 13.015 10.8409 11.1376
internal_count=413 262 233 125 108 71 51 151 114 89 69 98 54 44 45
is_linear=0
shrinkage=0.05


Tree=14
num_leaves=16
num_cat=0
split_feature=6 1 8 5 3 6 3 0 7 10 8 3 10 7 7
split_gain=3.34264 3.3731 3.332 5.62978 4.20919 4.1872 4.0675 3.13166 2.88956 2.95886 2.62993 2.11441 2.09096 2.73571 1.93862
threshold=-1.1579740968505068 3.5000000000000004 1.236467741285765 0.45463355745538786 1.0000000180025095e-35 0.52305446537204958 3.5000000000000004 4.5000000000000009 -0.46910276745976526 -0.11561625677099749 1.0000000180025095e-35 2.5000000000000004 -0.11561625677099749 0.29136926250543566 -0.31443049017870744
decision_type=2 2 2 2 2 2 2 2 2 2 2 2 2 2 2
left_child=7 8 3 4 -3 11 10 -1 -2 -10 -7 -6 -5 -14 -9
right_child=1 2 -4 12 5 6 -8 14 9 -11 -12 -13 13 -15 -16
leaf_value=-0.042332670942390731 -0.046655970798884977 0.053384318906559682 0.045601346955724292 -0.037540544063975813 0.00751451667468856 0.0013428965427980223 0.024395913164403892 0.020742174355278212 -0.026802390013544349 0.019992834282897425 -0.048107232429878778 0.045930060826988445 0.024985244147771708 -0.024208217507812727 -0.022956236123316487
leaf_weight=8.1752943396568316 5.0533337742090252 6.6145175248384467 5.9041602462530127 7.1742505729198482 6.3202889561653164 4.9054717868566531 6.4399962127208701 5.1590481996536255 6.4644536972045907 7.0751493573188755 5.9499979168176651 8.2671903967857343 4.9380030333995801 6.6081994771957397 4.9958135932683927
leaf_count=34 20 28 25 29 26 20 27 21 26 30 24 35 21 27 20
internal_value=0 0.0043262 0.00983957 0.00614941 0.0170862 0.00955576 -0.00708514 -0.0192992 -0.0143914 -0.00234944 -0.0257612 0.0292858 -0.0163415 -0.00316949 -0.000755815
internal_weight=0 81.715 63.1221 57.2179 38.4975 31.8829 17.2955 18.3302 18.5929 13.5396 10.8555 14.5875 18.7205 11.5462 10.1549
internal_count=413 338 262 237 160 132 71 75 76 56 44 61 77 48 41
is_linear=0
shrinkage=0.05


Tree=15
num_leaves=16
num_cat=0
split_feature=12 0 12 0 9 9 12 6 4 7 0 7 3 7 12
split_gain=3.15221 5.55094 2.28046 3.94337 2.22714 2.19987 2.76786 3.67549 2.0293 3.44571 2.7072 2.2525 1.89243 2.68147 1.66184
threshold=0.16512640732601727 3.5000000000000004 -0.81981643195955689 2.5000000000000004 -1.1799772003077231 1.802833305832966 -0.88893522769889544 -1.8138620734831241 0.33626309603470023 -0.50777083678002966 5.5000000000000009 0.020692777263584403 4.5000000000000009 -0.31443049017870744 0.87359406365423753
decision_type=2 2 2 2 2 2 2 2 2 2 2 2 2 2 2
left_child=1 2 -1 -4 -2 6 -3 -8 9 -6 14 -11 13 -9 -10
right_child=4 5 3 -5 8 -7 7 12 10 11 -12 -13 -14 -15 -16
leaf_value=-0.0031459979439753686 -0.021380319585435729 0.031066549455078002 -0.017541975174424077 -0.07589376354791276 -0.0029871444433017917 -0.028664594514601523 -0.040027268902417229 -0.022582492573362058 0.036648968719411222 0.063222379975634277 -0.016841420500150646 0.019033373674648617 0.034391616017223209 0.018513204139181946 -0.001668671192465833
leaf_weight=4.7724310755729702 4.9813131242990485 8.7522699236869794 6.3442996591329557 5.3259235620498657 6.4184259176254299 5.0192565470933905 4.9875707626342765 7.4640358984470376 6.3689336776733416 6.2026322782039625 9.1551251858472806 5.3898655921220779 5.0512623041868201 8.4778458327055013 5.0919388979673386
leaf_count=20 20 36 26 23 26 20 20 30 27 28 37 23 21 35 21
internal_value=0 -0.00782997 -0.0322643 -0.0441719 0.010085 0.00227674 0.00674807 -0.00144423 0.0141428 0.026404 0.00343096 0.042677 0.00772236 -0.000727922 0.0196249
internal_weight=0 56.1949 16.4427 11.6702 43.6082 39.7522 34.733 25.9807 38.6269 18.0109 20.616 11.5925 20.9931 15.9419 11.4609
internal_count=413 231 69 49 182 162 142 106 162 77 85 51 86 65 48
is_linear=0
shrinkage=0.05


Tree=16
num_leaves=16
num_cat=0
split_feature=5 4 7 5 4 8 9 6 8 8 0 5 8 7 7
split_gain=2.91148 4.58277 3.44028 3.10225 4.81556 2.96214 2.84415 3.75168 3.63176 1.92276 2.99629 5.73114 2.15552 1.62702 1.9339
threshold=-0.3205293712278397 0.37592725771618413 -0.64955375762099932 0.37792472597111015 0.6139122278050847 1.236467741285765 -0.67226477373058457 0.58324991256531089 -0.11134877563133673 -0.16318787243584082 4.5000000000000009 -1.1845130521560205 -1.0444525181124069 -0.26287306441835478 1.1549561439913418
decision_type=2 2 2 2 2 2 2 2 2 2 2 2 2 2 2
left_child=1 9 -2 4 6 13 -4 -8 -9 10 12 -12 -1 -5 -15
right_child=2 -3 3 5 -6 -7 7 8 -10 -11 11 -13 -14 14 -16
leaf_value=-0.0076771795475862369 -0.031365919064810656 -0.050404610121318888 -0.01990841952748168 0.013579025036184751 0.06104075127767418 0.02906206750768638 -0.0039134737633516421 0.012577438712926685 0.074801253333452528 0.019914987513077166 -0.022865517401762587 0.042895498177474761 -0.053886168910648694 -0.032811087709468251 0.0018088592014534157
leaf_weight=5.0790861248970032 5.4603677392005912 6.1906754523515692 5.5928139835596147 5.3750257045030656 6.1122178733348838 6.1100368797779074 8.084087401628496 4.8684301674366042 4.5242108702659545 6.9372034668922451 7.7188729792833346 5.804741501808163 5.0161313414573687 9.4891446679830569 7.0166890919208518
leaf_count=21 22 25 23 23 26 26 34 20 20 29 31 24 21 39 29
internal_value=0 -0.0111759 0.00655236 0.0101738 0.0215807 -0.00171838 0.0111258 0.0210573 0.0425492 -0.00322809 -0.0100256 0.00536109 -0.0306376 -0.0103136 -0.018094
internal_weight=0 36.7467 62.633 57.1727 29.1818 27.9909 23.0695 17.4767 9.39264 30.556 23.6188 13.5236 10.0952 21.8809 16.5058
internal_count=413 151 262 240 123 117 97 74 40 126 97 55 42 91 68
is_linear=0
shrinkage=0.05


Tree=17
num_leaves=16
num_cat=0
split_feature=8 10 6 5 6 10 3 8 6 0 6 0 4 5 7
split_gain=2.75831 3.40459 3.56854 5.46139 2.82325 2.6786 5.04138 3.88196 3.3631 2.49367 2.03668 2.02617 1.84748 0.966401 0.560346
threshold=0.73535647217556055 1.6844492782615879 0.73959647675183582 -0.12593117767298781 0.63556743210576283 1.0000000180025095e-35 4.5000000000000009 -1.0962916149169109 0.53618434479339849 3.5000000000000004 0.48669479928216003 6.5000000000000009 -0.29836349086903363 0.45463355745538786 1.0000000180025095e-35
decision_type=2 2 2 2 2 2 2 2 2 2 2 2 2 2 2
left_child=1 2 5 -4 10 6 8 -7 9 -1 13 14 -11 -2 -9
right_child=4 -3 3 -5 -6 7 -8 11 -10 12 -12 -13 -14 -15 -16
leaf_value=-0.030131510698087612 0.028669597830634171 0.02808266294357328 0.056756707776763948 -0.0079965005583054576 -0.015192282404415197 0.0095788782269585013 0.03240853027254384 -0.037880622827990616 -0.040334428294304184 -0.0099334234345559939 0.052361697214142126 -0.012744402038377454 0.031724127314338477 -0.0014026555257760647 -0.058829377799535225
leaf_weight=5.0574562698602739 5.5288671404123324 7.3229745626449576 4.9901868700981131 9.3715323954820615 5.4253912419080725 5.8913048952817944 7.3714705854654303 6.5003762692213076 8.4209077805280668 4.9489045143127433 5.1688603460788718 5.9021473824977866 5.7584645450115195 5.1694603264331818 6.2721881568431854
leaf_count=21 23 31 22 39 22 24 32 27 34 20 22 24 24 22 26
internal_value=0 -0.00436586 -0.00773708 0.0145029 0.0159438 -0.0134282 -0.00379058 -0.0258086 -0.0148236 -0.00119672 0.0265901 -0.0369723 0.0124702 0.0141386 -0.0481679
internal_weight=0 77.8079 70.4849 14.3617 21.2926 56.1232 31.5572 24.566 24.1857 15.7648 15.8672 18.6747 10.7074 10.6983 12.7726
internal_count=413 324 293 61 89 232 131 101 99 65 67 77 44 45 53
is_linear=0
shrinkage=0.05


Tree=18
num_leaves=16
num_cat=0
split_feature=1 5 4 9 5 9 8 5 8 8 7 5 5 5 7
split_gain=2.66934 3.38675 3.98972 3.78205 4.01243 2.68793 3.32072 2.44397 1.63166 2.98442 5.82496 4.45105 1.3538 2.05256 2.12456
threshold=2.5000000000000004 -0.3205293712278397 0.37592725771618413 -0.1645523471534461 -0.09767002923141184 -0.73572882705272702 1.1155098487419226 0.48773947420123404 -0.16318787243584082 -1.0962916149169109 -0.28865177729853114 -1.3581172497257017 1.2322188702907508 0.48773947420123404 -0.082422074257120795
decision_type=2 2 2 2 2 2 2 2 2 2 2 2 2 2 2
left_child=-1 2 8 5 -5 6 -3 -7 9 11 -11 -2 13 14 -6
right_child=1 3 -4 4 12 7 -8 -9 -10 10 -12 -13 -14 -15 -16
leaf_value=-0.026255751888893217 0.046350416488608819 -0.018649417107561957 -0.046997516619858654 0.033579035782629794 -0.027180367095929608 0.058185677451943689 0.03506604533201689 0.015772908234877508 0.01922592432416215 -0.053629538661439706 0.016456755636843151 -0.021276492506732036 0.0072970298934626312 -0.039596933154517983 0.019829763163604297
leaf_weight=8.8181857019662839 4.796636089682579 6.0963207781314868 5.9292802959680548 6.3266180157661465 4.8769983351230666 7.6746156662702543 5.4488666504621506 6.0933531373739243 6.908075854182246 7.2641656249761599 5.0087442696094477 4.937895819544794 6.9286740124225608 7.0051444172859183 4.738611802458764
leaf_count=36 20 25 24 27 20 34 23 26 29 30 21 20 29 29 20
internal_value=0 0.00256944 -0.00963497 0.0102749 -0.00177315 0.0244948 0.00670213 0.0394149 -0.00197358 -0.00862804 -0.0250264 0.0120463 -0.0112706 -0.0190109 -0.00401358
internal_weight=0 90.034 34.8448 55.1892 29.876 25.3132 11.5452 13.768 28.9155 22.0074 12.2729 9.73453 23.5494 16.6208 9.61561
internal_count=413 377 144 233 125 108 48 60 120 91 51 40 98 69 40
is_linear=0
shrinkage=0.05


Tree=19
num_leaves=14
num_cat=0
split_feature=9 12 3 1 12 10 6 6 6 5 9 5 10
split_gain=2.63567 4.1422 2.35771 4.13431 3.58372 2.6462 6.97308 3.56011 2.55793 2.64915 2.27475 3.95369 0.941497
threshold=-1.2434412536298656 1.236467741285765 4.5000000000000009 2.5000000000000004 -0.11134877563133673 -0.11561625677099749 0.73959647675183582 0.80726585530801875 0.60304573076980639 -1.0690460742375814 0.21623197277940778 -0.3205293712278397 -0.11561625677099749
decision_type=2 2 2 2 2 2 2 2 2 2 2 2 2
left_child=-1 2 3 -2 -4 7 8 10 9 -7 11 -5 -6
right_child=1 -3 4 5 12 6 -8 -9 -10 -11 -12 -13 -14
leaf_value=-0.03137442432068873 -0.046071490992361741 0.039239007676145264 -0.0091043017825311982 -0.020095230509600576 0.050895851514954321 -0.019601345516451152 0.05943008849131437 -0.043802391087975318 -0.034473210917417507 0.017054900669492411 -0.021204941160183906 0.035968050959059993 0.019347197269385372
leaf_weight=6.2687007933855048 5.6508570909500113 6.9531528502702704 8.0554585009813326 5.6445384174585369 5.0852611213922501 7.301207274198533 5.5460476428270331 6.8856710791587821 4.9765436351299277 15.169723123312 9.4786648452281934 7.1008594483137157 4.4204904139041883
leaf_count=26 23 30 34 23 22 30 25 28 20 64 39 30 19
internal_value=0 0.00212983 -0.000894543 -0.00512621 0.0154319 -0.00140054 0.00829403 -0.0123886 -0.00203854 0.00514463 -0.00265562 0.0111394 0.0362247
internal_weight=0 92.2685 85.3153 67.7541 17.5612 62.1033 32.9935 29.1097 27.4475 22.4709 22.2241 12.7454 9.50575
internal_count=413 387 357 282 75 259 139 120 114 94 92 53 41
is_linear=0
shrinkage=0.05


Tree=20
num_leaves=12
num_cat=0
split_feature=9 8 9 1 5 4 5 9 9 8 4
split_gain=2.38867 3.76997 2.14861 1.78154 2.25114 3.38423 2.89472 2.83192 7.1152 3.08604 2.00825
threshold=-1.2434412536298656 1.236467741285765 1.7393692525108235 2.5000000000000004 0.45463355745538786 0.73290471284953351 0.27053236189312124 0.53355223939011942 0.21623197277940778 -0.59518034580670653 0.098278125945799558
decision_type=2 2 2 2 2 2 2 2 2 2 2
left_child=-1 2 3 -2 6 10 7 8 -5 -9 -6
right_child=1 -3 -4 4 5 -7 -8 9 -10 -11 -12
leaf_value=-0.029926584877377999 -0.023206502599168458 0.037581336687330422 -0.024815360341302786 0.0076005625016750088 -0.017337246042495928 -0.042311948689168336 0.047289753615616603 0.058674994677508766 -0.056854435241006474 0.0027983728064476803 0.025836795979284455
leaf_weight=6.244015544652938 6.5245599448680869 6.8982691764831534 8.4269696623086912 34.071216851472855 5.2632645219564456 5.9138395935297003 4.5440935194492331 4.7230249643325806 4.8970887064933768 5.1824744343757612 5.5165933519601822
leaf_count=26 27 30 34 144 22 24 20 20 20 22 24
internal_value=0 0.00203155 -0.000851389 0.00178371 0.00410929 -0.0119174 0.00911781 0.00556873 -0.000499401 0.0294408 0.00475707
internal_weight=0 91.9614 85.0631 76.6362 70.1116 16.6937 53.4179 48.8738 38.9683 9.9055 10.7799
internal_count=413 387 357 323 296 70 226 206 164 42 46
is_linear=0
shrinkage=0.05


Tree=21
num_leaves=13
num_cat=0
split_feature=10 9 8 7 7 8 8 6 5 5 5 10
split_gain=2.3583 4.37813 4.02265 2.77733 3.77114 2.7267 3.12159 1.79058 1.35775 1.71458 2.05177 1.28486
threshold=1.6844492782615879 -1.2434412536298656 0.73535647217556055 -0.1597582128976496 0.96161579739001957 0.53663993442496216 0.16512640732601727 0.67313908706531544 0.51357823849067519 -0.46345003620380981 -0.9495417893989172 1.0000000180025095e-35
decision_type=2 2 2 2 2 2 2 2 2 2 2 2
left_child=1 -1 5 -4 -5 6 8 -8 9 10 -3 -11
right_child=-2 2 3 4 -6 -7 7 -9 -10 11 -12 -13
leaf_value=-0.047335419763847392 0.027388509927162269 -0.0052695533589035863 0.052216864785170902 -0.016650880027496328 0.037058074120474571 -0.041125292196785457 0.0043263007030876419 0.04081395074377353 -0.027787357021837912 0.01526224862553213 -0.040787456318011013 -0.010992950368625735
leaf_weight=5.0716581195592871 7.2758477330207816 14.877755030989642 5.1918150037527111 6.8424011170864087 6.2568972110748291 4.8907594829797736 8.8588716685771924 5.4191670417785636 7.634716883301734 12.660054832696924 5.5952114164829245 7.3738943934440604
leaf_count=21 31 62 23 28 27 20 38 24 32 53 23 31
internal_value=0 -0.00219761 0.000476681 0.0212692 0.00900327 -0.00517353 -0.0023566 0.018175 -0.00844596 -0.0048005 -0.0149765 0.0055985
internal_weight=0 90.6732 85.6015 18.2911 13.0993 67.3104 62.4197 14.278 48.1416 40.5069 20.473 20.0339
internal_count=413 382 361 78 55 283 263 62 201 169 85 84
is_linear=0
shrinkage=0.05


Tree=22
num_leaves=16
num_cat=0
split_feature=6 1 9 5 10 7 5 0 8 8 10 5 6 5 7
split_gain=2.21711 2.50438 2.70532 3.51883 3.97017 3.4982 2.8494 4.27597 2.47871 2.47135 2.12259 2.20213 2.02115 1.42316 0.580821
threshold=-1.1579740968505068 3.5000000000000004 -0.1645523471534461 -0.027420888819494296 -0.37276847606136676 0.79405416366887371 -0.09767002923141184 4.5000000000000009 0.47616098815304092 -0.95805402343823387 -0.11561625677099749 0.64196459855383481 -1.9916204410336948 0.022641716991297401 -0.18553692577782607
decision_type=2 2 2 2 2 2 2 2 2 2 2 2 2 2 2
left_child=9 8 3 4 -3 14 7 -4 13 12 -8 -12 -1 -2 -5
right_child=1 2 6 5 -6 -7 10 -9 -10 -11 11 -13 -14 -15 -16
leaf_value=0.024015364708526169 -0.044761653995986639 -0.034441876408328465 -0.01239599568299265 0.042732043027140364 0.025492213039148871 0.0084495548821555463 -0.030163592352865039 0.04541152434590983 0.0091565113600073494 -0.036702269613668403 -0.021876545599727095 0.021746007174984705 -0.021160034980971239 -0.0079598333129917622 0.06763306458614686
leaf_weight=4.8027164489030847 5.8758758157491702 5.0765940696001053 6.1918309628963453 4.8917803317308453 6.063316226005556 7.2710466384887686 9.3700932264328003 6.6181246787309647 7.5524571537971488 7.9447935521602622 5.3308525532484055 6.3265460133552551 5.1104537248611459 4.7510571181774139 4.4923797994852057
leaf_count=20 24 21 26 22 26 31 39 28 32 34 22 27 21 20 20
internal_value=0 0.00356406 0.00837434 0.0199325 -0.00182049 0.0344821 -0.00111988 0.0174696 -0.012744 -0.0159251 -0.0124446 0.0017977 0.000726469 -0.0283084 0.0546526
internal_weight=0 79.812 61.6326 27.7951 11.1399 16.6552 33.8374 12.81 18.1794 17.858 21.0275 11.6574 9.91317 10.6269 9.38416
internal_count=413 338 262 120 47 73 142 54 76 75 88 49 41 44 42
is_linear=0
shrinkage=0.05


Tree=23
num_leaves=14
num_cat=0
split_feature=9 0 8 5 3 5 7 8 9 5 0 7 9
split_gain=2.00664 2.69343 2.57946 4.79637 2.40088 4.15715 3.34266 2.88233 2.08747 1.49995 1.43378 0.758505 0.0243783
threshold=1.7393692525108235 7.5000000000000009 -0.88893522769889544 -1.1505996740261293 4.5000000000000009 -0.61444531502023014 -0.44332405457958896 0.16512640732601727 -1.0000000180025095e-35 0.37792472597111015 4.5000000000000009 -0.44332405457958896 -0.29148045379773074
decision_type=2 2 2 2 2 2 2 2 2 2 2 2 2
left_child=1 2 10 -4 5 -5 8 -8 -7 12 -1 -3 -6
right_child=-2 11 3 4 9 6 7 -9 -10 -11 -12 -13 -14
leaf_value=0.0010086665016912012 -0.023402445241758073 0.0063841011444786171 -0.050171998950402613 0.03710773781139317 0.031295896950072219 -0.014409117245835941 -0.02401319837123627 0.0079412568672819882 -0.060790765369275482 -0.0050416215402757673 0.038204504317421534 0.030837865640296842 0.026158071283834933
leaf_weight=4.7100091427564603 8.3714076429605466 4.8585593700408927 5.4496131539344708 4.7982119023799816 4.510461598634719 4.8348347097635269 11.239034295082115 18.965527445077896 4.8687821030616671 5.1340691745281211 5.758122131228447 9.130115792155264 4.7299293279647818
leaf_count=20 34 20 24 20 20 20 48 82 20 22 24 39 20
internal_value=0 0.00220283 -0.00155399 -0.00528873 -0.0011487 -0.00686405 -0.0121508 -0.00394891 -0.0376811 0.0166268 0.0214687 0.0223446 0.028666
internal_weight=0 88.9873 74.9986 64.5305 59.0809 44.7064 39.9082 30.2046 9.70362 14.3745 10.4681 13.9887 9.24039
internal_count=413 379 320 276 252 190 170 130 40 62 44 59 40
is_linear=0
shrinkage=0.05


Tree=24
num_leaves=12
num_cat=0
split_feature=10 9 12 12 0 0 12 9 5 7 7
split_gain=2.18279 4.05119 3.20809 2.53032 2.69674 5.25175 4.44462 2.63681 3.08165 2.50294 3.37664
threshold=1.6844492782615879 -1.2434412536298656 0.73535647217556055 0.53663993442496216 2.5000000000000004 3.5000000000000004 0.16512640732601727 1.4855130392222544 -1.2224637372061367 -0.1597582128976496 0.96161579739001957
decision_type=2 2 2 2 2 2 2 2 2 2 2
left_child=1 -1 3 4 6 -6 -3 8 -7 -4 -11
right_child=-2 2 9 -5 5 7 -8 -9 -10 10 -12
leaf_value=-0.045859536063793713 0.026422802968493916 -0.0034088176651674825 0.048915862009568795 -0.039238663657234316 -0.046962567798675497 -0.027924508221038025 0.059462520368678086 -0.031333802140906544 0.011046576659440392 -0.016705088367229719 0.034286509336247023
leaf_weight=5.0009488314390174 7.2336754798889151 7.8258553892374021 5.0735631287097958 4.8892223984003058 7.069082483649253 6.0817980915307919 4.3868002891540527 5.9388389885425559 30.572667255997665 6.8349361270666105 6.1839770823717117
leaf_count=21 31 33 23 20 32 25 20 24 129 28 27
internal_value=0 -0.00212741 0.000449895 -0.004611 -0.0018748 -0.00705114 0.0191746 -0.000427164 0.0045804 0.0191254 0.00751589
internal_weight=0 89.8577 84.8567 66.7643 61.875 49.6624 12.2127 42.5933 36.6545 18.0925 13.0189
internal_count=413 382 361 283 263 210 53 178 154 78 55
is_linear=0
shrinkage=0.05


Tree=25
num_leaves=13
num_cat=0
split_feature=10 9 8 0 9 9 6 6 0 5 8 6
split_gain=1.97418 3.69641 2.92905 1.38364 2.42041 1.60231 2.52818 3.1027 2.75249 4.27263 3.8448 0.23558
threshold=1.6844492782615879 -1.2434412536298656 1.236467741285765 7.5000000000000009 -0.10108829383130384 -0.73572882705272702 0.73959647675183582 0.82403170133835679 2.5000000000000004 0.19543845317693351 -1.0962916149169109 0.52305446537204958
decision_type=2 2 2 2 2 2 2 2 2 2 2 2
left_child=1 -1 3 5 -5 11 8 -8 9 -7 -10 -3
right_child=-2 2 -4 4 -6 6 7 -9 10 -11 -12 -13
leaf_value=-0.044022593462785212 0.025150381971003 -0.016032600670592267 0.032216991235699828 0.039912688283315241 -0.005652749335022491 -0.0099308153276411876 0.050858595298985669 -0.0023361171711127663 0.017996825672314434 0.050742309938098445 -0.023956139711670557 -0.031558341269941524
leaf_weight=4.95044121146202 7.2200124263763419 4.869634047150603 6.6748726963996878 4.9948747903108597 6.9973401725292188 7.7447184026241356 4.5987784713506681 6.7864470481872559 6.9600767344236258 4.6400888115167618 25.359325885772716 4.9036039859056473
leaf_count=21 31 21 30 21 29 33 21 29 29 21 107 20
internal_value=0 -0.00202934 0.000429969 -0.00229529 0.0133257 -0.00513954 -0.00188416 0.0191506 -0.00724126 0.012801 -0.0149214 -0.0238225
internal_weight=0 89.4802 84.5298 77.8549 11.9922 65.8627 56.0894 11.3852 44.7042 12.3848 32.3194 9.77324
internal_count=413 382 361 331 50 281 240 50 190 54 136 41
is_linear=0
shrinkage=0.05


Tree=26
num_leaves=11
num_cat=0
split_feature=9 10 9 1 8 0 0 8 5 8
split_gain=1.80911 3.80319 3.63575 2.78413 2.8652 2.51243 3.43068 2.22814 2.22443 1.53942
threshold=1.7393692525108235 1.6844492782615879 -1.2434412536298656 2.5000000000000004 1.236467741285765 7.5000000000000009 2.5000000000000004 -0.95805402343823387 0.022641716991297401 0.47616098815304092
decision_type=2 2 2 2 2 2 2 2 2 2
left_child=1 2 -1 -4 5 6 9 -8 -7 -5
right_child=-2 -3 3 4 -6 8 7 -9 -10 -11
leaf_value=-0.04227923817926485 -0.022264456965250499 0.043595389576930869 -0.02932036969605685 0.044502484457129107 0.036994199338581682 0.046561331065929933 0.017394903418300276 -0.013054498133683888 0.0010090666858556274 0.0039200709014374138
leaf_weight=4.8981854617595664 8.3344810903072339 5.1979789137840262 6.4543312788009635 4.8694260418415052 6.3625429868698111 5.4029476046562177 7.1379695385694424 37.949164524674423 5.3178050369024277 4.4928885400295258
leaf_count=21 34 23 27 22 29 23 30 162 22 20
internal_value=0 0.00210773 -0.000494084 0.00213034 0.00496811 0.00184142 -0.00251479 -0.0082339 0.0239661 0.0250274
internal_weight=0 88.0832 82.8853 77.9871 71.5327 65.1702 54.4494 45.0871 10.7208 9.36231
internal_count=413 379 356 335 308 279 234 192 45 42
is_linear=0
shrinkage=0.05


Tree=27
num_leaves=17
num_cat=0
split_feature=5 7 5 3 9 9 12 7 10 7 7 12 10 6 10 10
split_gain=1.87875 2.39441 2.84775 3.3321 1.89961 2.45938 2.24527 2.44373 1.69018 1.62884 4.12959 1.98553 1.49097 0.801139 0.671158 0.214489
threshold=-0.3205293712278397 -0.64955375762099932 0.37792472597111015 3.5000000000000004 0.53355223939011942 0.089303866135123061 -0.75933748568763559 -0.67533247050117573 1.0000000180025095e-35 0.020692777263584403 1.1549561439913418 0.51072038602271019 1.0000000180025095e-35 0.76282626342037629 1.0000000180025095e-35 0.39868818180974114
decision_type=2 2 2 2 2 2 2 2 2 2 2 2 2 2 2 2
left_child=4 -2 3 13 5 6 -1 -8 -9 11 -11 -4 -5 14 -3 -12
right_child=1 2 9 12 -6 -7 7 8 -10 10 15 -13 -14 -15 -16 -17
leaf_value=0.023202870663992656 -0.026732293045252615 0.010581053625132109 -0.0071096797391591599 0.060480779229503845 0.010884691178383853 -0.043865974420159055 0.010818213903350955 -0.052080866513676674 -0.012021189932542769 -0.041663088052046555 0.0013509828782371598 0.037437126164572808 0.022232743448602144 0.018514239416961887 -0.015162925054654134 0.016228721681000684
leaf_weight=4.6027937233448055 5.3031972944736472 4.9087488502264076 5.6406232714653033 5.3722618520259839 8.9025349617004377 6.034999653697013 5.4446677565574708 4.8629138469696027 5.742139607667923 7.1156300306320217 5.0547088980674726 4.4945608228445053 4.8465460389852524 7.9378627836704245 5.2281464487314224 4.6521416902542114
leaf_count=20 22 21 24 24 37 25 24 20 25 30 22 21 21 35 22 20
internal_value=0 0.00535983 0.00844014 0.0195203 -0.00911553 -0.0157873 -0.00758225 -0.0164109 -0.0303904 -0.00318913 -0.0127289 0.0126451 0.0423406 0.00661858 -0.00269651 0.00848134
internal_weight=0 60.5544 55.2512 28.2936 35.59 26.6875 20.6525 16.0497 10.6051 26.9577 16.8225 10.1352 10.2188 18.0748 10.1369 9.70685
internal_count=413 262 240 123 151 114 89 69 45 117 72 45 45 78 43 42
is_linear=0
shrinkage=0.05


Tree=28
num_leaves=17
num_cat=0
split_feature=6 6 0 9 6 8 3 7 4 8 9 10 7 4 4 7
split_gain=1.75877 2.23246 1.9665 1.93162 1.82518 1.92557 1.62131 2.95659 3.96623 3.76093 2.3783 4.31655 1.77283 1.64436 1.59518 1.57399
threshold=-1.1579740968505068 0.19056551879450459 4.5000000000000009 1.7393692525108235 1.0000000180025095e-35 0.096007611586678657 4.5000000000000009 -0.44332405457958896 0.33626309603470023 0.16512640732601727 -0.67226477373058457 1.0000000180025095e-35 -0.056643361376944597 -0.139706844143098 0.89156135957546634 -0.31443049017870744
decision_type=2 2 2 2 2 2 2 2 2 2 2 2 2 2 2 2
left_child=2 4 -1 6 5 -2 7 13 9 -9 -8 -12 -10 -3 -14 -4
right_child=1 3 15 -5 -6 -7 10 8 12 -11 11 -13 14 -15 -16 -17
leaf_value=-0.033433693698004058 0.031835582122868168 -0.0099448947531944436 0.019887922813926543 -0.031402593168555308 0.045831451700238467 -0.0094395893280813364 -0.014655879873010058 0.0011897518762554382 0.0096064916607744733 0.057728515246437934 0.056484449623554138 -0.0074776683630344513 -0.0433845281553914 -0.046463535301628056 -0.0034625247488643766 -0.02001394468727526
leaf_weight=7.6117223501205471 5.0929821282625216 8.6526130139827711 5.053569585084916 4.8497834205627433 4.7409041970968238 6.3471951931715012 4.6045372188091269 6.2792060375213676 6.7754814326763144 5.5332034230232239 5.990017816424368 4.7132244259119034 5.0271153599023837 4.788454100489612 4.9819276034832001 4.8370606601238224
leaf_count=34 22 36 21 20 21 27 20 27 29 27 27 20 21 20 21 20
internal_value=0 0.00320148 -0.014329 -0.00110272 0.0197456 0.00893545 0.00145977 -0.00361349 0.0054773 0.0276738 0.0153919 0.0283184 -0.0101439 -0.0229549 -0.0235136 0.000373721
internal_weight=0 78.3766 17.5024 62.1956 16.1811 11.4402 57.3458 42.038 28.5969 11.8124 15.3078 10.7032 16.7845 13.4411 10.009 9.89063
internal_count=413 338 75 268 70 49 248 181 125 54 67 47 71 56 42 41
is_linear=0
shrinkage=0.05


Tree=29
num_leaves=12
num_cat=0
split_feature=10 9 8 7 7 8 0 0 8 9 6
split_gain=1.61757 3.03 2.40221 2.14085 2.79922 2.09678 2.19302 4.68528 3.86989 2.3395 1.80903
threshold=1.6844492782615879 -1.2434412536298656 0.73535647217556055 -0.1597582128976496 0.96161579739001957 0.53663993442496216 2.5000000000000004 3.5000000000000004 0.16512640732601727 1.4855130392222544 0.73959647675183582
decision_type=2 2 2 2 2 2 2 2 2 2 2
left_child=1 -1 5 -4 -5 6 8 -8 -3 10 -9
right_child=-2 2 3 4 -6 -7 7 9 -10 -11 -12
leaf_value=-0.040440552024435902 0.022899339747074463 -0.0032565102426035612 0.044942108890340254 -0.016027665280510989 0.030720799567442739 -0.035639269516152781 -0.044544905279867125 -0.0014393999401458918 0.056218244658707596 -0.029217008421093673 0.024822664144636596
leaf_weight=4.8087989240884772 7.1374316215515128 7.7783835083246213 4.8711912035942104 6.7908338606357557 6.0594121962785721 4.8570275753736487 6.8508991450071326 27.707983657717705 4.2184221297502518 5.881805643439292 8.5903244316577894
leaf_count=21 31 33 23 28 27 20 32 116 20 24 38
internal_value=0 -0.00184571 0.000374156 0.0167159 0.00601613 -0.00402139 -0.00150501 -0.00619342 0.0176565 3.56354e-05 0.00477576
internal_weight=0 88.4151 83.6063 17.7214 12.8502 65.8848 61.0278 49.031 11.9968 42.1801 36.2983
internal_count=413 382 361 78 55 283 263 210 53 178 154
is_linear=0
shrinkage=0.05


Tree=30
num_leaves=15
num_cat=0
split_feature=1 10 5 8 9 10 6 5 5 4 8 9 6 5
split_gain=1.53066 2.07041 2.63212 2.24907 1.67268 1.96831 1.39618 1.18551 2.81437 2.40733 2.14975 1.39958 1.01545 0.772285
threshold=2.5000000000000004 1.9416014975519571 -1.1845130521560205 -0.95805402343823387 0.21623197277940778 -0.88707291464210525 0.47194893470126026 0.022641716991297401 0.45463355745538786 0.37592725771618413 0.87359406365423753 -0.41840856044201541 0.73959647675183582 0.22935183130682477
decision_type=2 2 2 2 2 2 2 2 2 2 2 2 2 2
left_child=-1 2 3 -2 7 -6 -7 9 13 11 -10 -4 -8 -9
right_child=1 -3 4 -5 5 6 12 8 10 -11 -12 -13 -14 -15
leaf_value=-0.02023455635428403 0.0001963151179768823 0.03108421893023864 -0.0056796823250788789 -0.043493614028388361 -0.033657443490043751 0.019749685537658601 -0.023696867651966914 0.022078296996535383 -0.018699329627985796 -0.025786324969983627 0.0211195801456905 0.023954039282550292 0.0064862485756133599 0.049440598755550652
leaf_weight=8.5078300237655622 5.8228388130664825 5.711834490299224 7.0939067006111189 5.9613438397645933 5.4392392039299038 6.2388729900121715 6.0346275120973569 4.8894161134958285 6.5546707361936551 6.1489239186048499 7.0196614414453506 9.0899717062711716 5.1772579401731491 5.4567723125219345
leaf_count=36 24 25 31 27 23 27 25 21 28 26 33 39 23 25
internal_value=0 0.00199041 -6.30255e-05 -0.0219054 0.0036596 -0.00739519 0.00079051 0.00913043 0.016865 0.000845942 0.00189213 0.0109646 -0.00975936 0.0365097
internal_weight=0 86.6393 80.9275 11.7842 69.1433 22.89 17.4508 46.2533 23.9205 22.3328 13.5743 16.1839 11.2119 10.3462
internal_count=413 377 352 51 301 98 75 203 107 96 61 70 48 46
is_linear=0
shrinkage=0.05


Tree=31
num_leaves=11
num_cat=0
split_feature=9 0 8 5 5 5 4 3 0 8
split_gain=1.43386 1.85266 2.15944 3.43576 4.27023 5.10557 3.25733 2.43819 1.11779 0.764674
threshold=1.7393692525108235 7.5000000000000009 -0.88893522769889544 -1.1505996740261293 -0.83003750456025283 -0.42872919668987358 -0.3776918142319986 4.5000000000000009 4.5000000000000009 0.40704219241370226
decision_type=2 2 2 2 2 2 2 2 2 2
left_child=1 2 8 -4 -5 -6 -7 -8 -1 -3
right_child=-2 9 3 4 5 6 7 -9 -10 -11
leaf_value=0.0016350133216469099 -0.019930095322215811 0.029861463376766064 -0.044109016609060366 0.048730107094956683 -0.058788751003858469 -0.038838814342813867 -0.003292182571714113 0.023196177173451057 0.034805413072652336 0.0061417364341100509
leaf_weight=4.5919992029666883 8.2383497357368451 7.2880372107028943 5.0935732424259106 3.9759269505739132 4.0726433396339337 4.9944694638252178 32.703404709696798 11.830197155475615 5.6830058246850967 6.3654713183641434
leaf_count=20 34 31 24 17 17 21 144 53 24 28
internal_value=0 0.00189903 -0.00126496 -0.00474835 -0.00126627 -0.00497484 -0.000549779 0.00374436 0.0199812 0.018803
internal_weight=0 86.5987 72.9452 62.6702 57.5766 53.6007 49.5281 44.5336 10.275 13.6535
internal_count=413 379 320 276 252 235 218 197 44 59
is_linear=0
shrinkage=0.05


Tree=32
num_leaves=16
num_cat=0
split_feature=6 6 7 8 7 9 10 10 9 8 6 9 6 6 5
split_gain=1.40139 2.44367 1.93456 2.66577 1.73257 2.50979 2.33975 1.84294 3.98148 3.47683 2.88147 3.20415 1.56854 1.54084 1.67808
threshold=-1.1579740968505068 -0.78266154354487016 -0.26287306441835478 -1.0962916149169109 -0.44332405457958896 -0.22801640047558847 -0.629920695351736 -0.11561625677099749 -0.73572882705272702 -0.19774727030550993 0.73959647675183582 -0.79919288037486924 0.47699888832485621 0.19056551879450459 0.60562883627180841
decision_type=2 2 2 2 2 2 2 2 2 2 2 2 2 2 2
left_child=2 -2 3 -1 5 -3 -7 8 -6 -10 11 -9 -11 -13 -15
right_child=1 4 -4 -5 7 6 -8 10 9 12 -12 13 -14 14 -16
leaf_value=0.020197364538523711 0.04030145504008166 0.013182671593753012 -0.038466995033947779 -0.027065659589728466 -0.032239533495123027 0.0036353569804695356 -0.038136101490228662 0.04440287611804216 -0.024177342654695122 0.0061947501735108608 0.050137395925485086 0.022815477054014224 0.045418320153059633 -0.024627935916996111 0.01038307054536141
leaf_weight=6.3834590166807184 4.1270716786384574 7.1301124244928387 5.1771628707647315 5.6013905704021463 8.3829983621835726 5.2498222887516031 9.2751865535974467 4.6455831080675187 4.8427304476499566 4.7522497624158824 4.6902795732021323 4.7073794901371029 5.497223436832428 8.3129272162914258 5.8177077621221533
leaf_count=27 18 31 22 26 36 22 39 20 21 21 22 21 25 36 26
internal_value=0 0.00286659 -0.0129254 -0.00189208 0.000758988 -0.0111124 -0.0230385 0.00573636 -0.0046106 0.010736 0.0143577 0.00721158 0.027232 -0.00196005 -0.0102136
internal_weight=0 77.4313 17.162 11.9848 73.3042 21.6551 14.525 51.6491 23.4752 15.0922 28.1739 23.4836 10.2495 18.838 14.1306
internal_count=413 338 75 53 320 92 61 228 103 67 125 103 46 83 62
is_linear=0
shrinkage=0.05


Tree=33
num_leaves=16
num_cat=0
split_feature=1 9 9 6 6 6 2 9 5 9 7 2 6 5 9
split_gain=1.38886 2.01225 2.66963 2.54013 3.06225 2.46213 2.8092 3.50671 2.37567 2.34432 2.57106 2.46793 2.33699 1.19879 1.12627
threshold=2.5000000000000004 -1.2434412536298656 -0.1645523471534461 0.73959647675183582 0.82867765867206489 0.62405353784396478 7.5000000000000009 -0.35494450711987308 -0.16630424687523929 0.53355223939011942 -0.73977925270161637 3.5000000000000004 0.19056551879450459 0.13568631075760149 1.2316568259336851
decision_type=2 2 2 2 2 2 2 2 2 2 2 2 2 2 2
left_child=-1 -2 5 9 -5 6 7 8 -3 10 -4 -12 -11 -7 -14
right_child=1 2 3 4 -6 13 -8 -9 -10 12 11 -13 14 -15 -16
leaf_value=-0.019344243878040557 -0.030148925876697222 -0.016123304805323112 -0.055651156902438825 0.048426564904447654 -0.0051577534658476558 -0.025509893501103744 0.054541350024700952 0.050550954854683909 0.023790018436192866 0.0247082719840255 0.014101407831248573 -0.031914694291667801 0.0037471073508077318 0.0094229291549281433 -0.027372082937094047
leaf_weight=8.4461701810359937 4.6321261376142493 8.2999319732189196 4.7148487120866802 4.5085689872503263 6.5250585973262787 4.6588998287916166 5.3497635871171942 4.8856810927391079 6.768261954188346 6.8273773938417461 5.1353556066751462 6.7352965325117111 5.6948347687721235 5.1938218623399734 5.9405375421047211
leaf_count=36 21 37 20 21 28 20 24 22 32 29 23 28 24 23 25
internal_value=0 0.0019049 0.00373257 -0.00418427 0.0167379 0.0141097 0.0223665 0.0137402 0.00180478 -0.0107708 -0.0244145 -0.0120077 0.00148553 -0.0070952 -0.0121411
internal_weight=0 85.8704 81.2382 46.0819 11.0336 35.1564 25.3036 19.9539 15.0682 35.0483 16.5855 11.8707 18.4627 9.85272 11.6354
internal_count=413 377 356 198 49 158 115 91 69 149 71 51 78 43 49
is_linear=0
shrinkage=0.05


Tree=34
num_leaves=11
num_cat=0
split_feature=8 5 6 1 0 0 5 5 8 4
split_gain=1.54668 2.73288 1.74062 1.444 2.73693 3.33745 2.48294 3.60091 1.46772 1.38802
threshold=-2.038035206865398 -1.2224637372061367 -2.0223241590651568 2.5000000000000004 2.5000000000000004 3.5000000000000004 -0.86395088269014408 -0.35444274935773096 0.56255948282721413 -0.4173559759134825
decision_type=2 2 2 2 2 2 2 2 2 2
left_child=-1 2 -2 -3 8 -6 -7 -8 -5 -9
right_child=1 3 -4 4 5 6 7 9 -10 -11
leaf_value=0.030466018715591448 -0.0052465936005235275 -0.019000907930155183 -0.04882749963045073 0.041766033709829259 -0.03082219814479847 0.030302110167463005 -0.033532139386290773 -0.020380422172403115 0.0064642126822397374 0.0089920104503592013
leaf_weight=3.9896333515644065 4.5434605032205582 7.7046735137701026 4.621768116950987 6.4791637957096082 7.9051719307899466 7.6757155209779659 6.9636472761630932 4.5600442141294399 5.3968595713376999 34.096882760524771
leaf_count=17 20 33 21 30 37 33 29 19 25 149
internal_value=0 -0.00134872 -0.0272232 0.0015869 0.0037575 -0.000504996 0.0039918 -0.000434937 0.0257237 0.00552718
internal_weight=0 89.9474 9.16523 80.7822 73.0775 61.2015 53.2963 45.6206 11.876 38.6569
internal_count=413 396 41 355 322 267 230 197 55 168
is_linear=0
shrinkage=0.05


Tree=35
num_leaves=10
num_cat=0
split_feature=8 9 9 1 0 8 0 6 8
split_gain=1.39974 2.93737 2.20785 2.0577 1.99744 3.40914 4.66858 1.78397 1.58191
threshold=-2.038035206865398 -1.2434412536298656 1.7393692525108235 2.5000000000000004 2.5000000000000004 0.90815346152390697 3.5000000000000004 0.73959647675183582 0.56255948282721413
decision_type=2 2 2 2 2 2 2 2 2
left_child=-1 -2 3 -3 8 6 -6 -8 -5
right_child=1 2 -4 4 5 -7 7 -9 -10
leaf_value=0.029018411831154573 -0.039059226679964289 -0.024735096138489052 -0.026116627077695954 0.04429631452969434 -0.038990922126796355 0.031943549990123825 -0.0015369595524742903 0.023055245101748979 0.0061507892207185652
leaf_weight=3.979485794901847 4.8674487024545661 6.0411177575588217 6.9520548433065406 5.4839589744806272 7.5364701300859442 8.284213721752165 35.860750511288643 9.283599451184271 5.3884918987751007
leaf_count=17 22 26 29 26 36 38 152 42 25
internal_value=0 -0.00128604 0.000881323 0.00329137 0.00564824 0.00212732 -0.00256136 0.00352024 0.025391
internal_weight=0 89.6981 84.8307 77.8786 71.8375 60.965 52.6808 45.1443 10.8725
internal_count=413 396 374 345 319 268 230 194 51
is_linear=0
shrinkage=0.05


Tree=36
num_leaves=12
num_cat=0
split_feature=10 9 8 3 1 4 8 10 3 1 9
split_gain=1.39779 2.29449 1.74685 1.70565 2.05446 2.6061 1.76487 2.26422 1.77382 1.50467 1.5073
threshold=1.6844492782615879 -1.2434412536298656 1.236467741285765 4.5000000000000009 2.5000000000000004 -1.825433715606142 -0.31870516284935224 -0.11561625677099749 1.0000000180025095e-35 4.5000000000000009 0.15276791945726542
decision_type=2 2 2 2 2 2 2 2 2 2 2
left_child=1 -1 3 4 -3 -6 7 -7 -8 10 -5
right_child=-2 2 -4 9 5 6 8 -9 -10 -11 -12
leaf_value=-0.036110271138656641 0.0215266188712947 -0.037858138564589638 0.025471289621204499 0.020296881206487722 -0.035797108358144696 -0.0047869516955775671 0.01530807340143011 0.033595511919752227 -0.011862662034598835 0.03181383001684561 -0.020090815182843183
leaf_weight=4.5969914346933356 6.9775717407464972 4.5977453142404547 6.3075051307678214 4.6087541282176954 5.4817515462636868 7.6013809740543365 7.747813776135458 7.7696957290172488 26.732308864593506 6.2515391409397116 4.631960391998291
leaf_count=21 31 20 30 21 23 33 35 34 116 29 20
internal_value=0 -0.00173914 0.000194095 -0.0019198 -0.00574273 -0.00307418 0.000524104 0.0146144 -0.0057573 0.0128689 5.23201e-05
internal_weight=0 86.3274 81.7305 75.4229 59.9307 55.333 49.8512 15.3711 34.4801 15.4923 9.24071
internal_count=413 382 361 331 261 241 218 67 151 70 41
is_linear=0
shrinkage=0.05


Tree=37
num_leaves=15
num_cat=0
split_feature=8 9 9 0 8 6 0 5 0 5 5 8 5 5
split_gain=1.32303 2.46751 2.00244 1.76845 1.53156 2.97958 2.92422 2.74949 2.61967 2.15141 1.50793 1.35997 1.67128 0.95167
threshold=-2.038035206865398 -1.2434412536298656 1.7393692525108235 7.5000000000000009 0.42432189134853687 0.73959647675183582 5.5000000000000009 -0.66047061391079687 2.5000000000000004 -1.2224637372061367 0.13568631075760149 1.0031918056654976 0.22935183130682477 0.60562883627180841
decision_type=2 2 2 2 2 2 2 2 2 2 2 2 2 2
left_child=-1 -2 3 4 5 7 11 9 -9 -3 -7 12 -6 -5
right_child=1 2 -4 13 6 10 -8 8 -10 -11 -12 -13 -14 -15
leaf_value=0.028275689354114886 -0.036293069160517596 -0.014918604458539273 -0.025054598802006674 0.03001931017965135 0.015535785823295812 0.037332694890939766 -0.020771507922566268 0.004906370122036173 -0.03504257994812239 0.025309456318338724 -0.002477849023608768 0.00070623885559966662 0.056366178334393807 0.0019037648955084836
leaf_weight=3.9609648287296286 4.7570138126611701 6.6924524307250977 6.9180431663990012 8.3016521334648115 6.129365339875223 5.1427687555551511 5.4455619454383841 5.6520832180976965 14.979854986071585 6.6024182736873538 4.4255052953958511 5.1055686324834815 4.2398879677057266 4.7215823680162421
leaf_count=17 22 30 29 36 27 24 23 26 65 29 20 24 20 21
internal_value=0 -0.00125665 0.000719107 0.00302162 -0.000375815 -0.00572277 0.0107409 -0.0126726 -0.0240986 0.00505921 0.0189196 0.0218301 0.0322309 0.019826
internal_weight=0 89.1138 84.3567 77.4387 64.4155 43.4951 20.9204 33.9268 20.6319 13.2949 9.56827 15.4748 10.3693 13.0232
internal_count=413 396 374 345 288 194 94 150 91 59 44 71 47 57
is_linear=0
shrinkage=0.05


Tree=38
num_leaves=13
num_cat=0
split_feature=10 9 8 5 5 5 6 4 0 9 6 5
split_gain=1.2805 1.89774 1.58575 1.11059 2.6522 2.46114 3.76078 2.3289 1.8743 1.1697 1.15764 0.738436
threshold=1.6844492782615879 -1.2434412536298656 1.236467741285765 0.45463355745538786 0.16152507504704228 -0.12593117767298781 0.73959647675183582 0.73290471284953351 7.5000000000000009 -0.1645523471534461 0.57698797007205205 -0.020153736363088998
decision_type=2 2 2 2 2 2 2 2 2 2 2 2
left_child=1 -1 3 4 5 6 8 10 -3 -6 -5 -7
right_child=-2 2 -4 7 9 11 -8 -9 -10 -11 -12 -13
leaf_value=-0.033318884098438639 0.020674405080932781 -0.0087960450054294544 0.024281758770307013 0.012134378220536044 0.042214414735571061 -0.037680961165167337 0.04564155091391664 -0.037351646022787274 0.023100962008819351 0.0072860486647954971 -0.019631517111392965 -0.011442460642529123
leaf_weight=4.48847772181034 6.9303276091814032 26.205636262893673 6.2473178356885901 7.5972428470850009 5.00292007625103 5.2951852679252625 4.5010714828968039 6.2689593732357016 5.5874923318624488 4.6015879362821561 4.6074645519256592 5.4324971586465889
leaf_count=21 31 114 30 35 24 22 22 26 24 20 20 24
internal_value=0 -0.0016687 7.76487e-05 -0.00193581 0.0015371 -0.00335338 0.00286565 -0.0125811 -0.0031903 0.02548 0.000142265 -0.0243938
internal_weight=0 85.8359 81.3474 75.1001 56.6264 47.0219 36.2942 18.4737 31.7931 9.60451 12.2047 10.7277
internal_count=413 382 361 331 250 206 160 81 138 44 55 46
is_linear=0
shrinkage=0.05


Tree=39
num_leaves=16
num_cat=0
split_feature=8 5 6 7 2 9 7 10 0 0 6 8 8 8 5
split_gain=1.20243 2.18194 1.63278 1.05667 2.18813 3.33004 1.97132 2.62423 2.99573 3.2279 2.42082 1.57266 1.43826 2.86674 1.19718
threshold=-2.038035206865398 -1.2224637372061367 -2.0223241590651568 -0.44332405457958896 3.5000000000000004 -0.037624240509161494 -0.056643361376944597 -0.629920695351736 2.5000000000000004 4.5000000000000009 0.57698797007205205 -0.59518034580670653 -0.28414576497968308 0.40704219241370226 0.41264556548504622
decision_type=2 2 2 2 2 2 2 2 2 2 2 2 2 2 2
left_child=-1 2 -2 4 -3 -6 12 14 -9 -10 -11 -7 -5 -14 -8
right_child=1 3 -4 6 5 11 7 8 9 10 -12 -13 13 -15 -16
leaf_value=0.027016475246005107 -0.0031998965557062651 -0.031914422879206227 -0.04585530745744236 0.044559081397258678 0.02757817587706481 0.0028767597549789995 -0.0074637994935273944 0.035024572938628165 -0.029606363832145294 0.025895831363921269 -0.016630334016901758 -0.037054636693720444 -0.018387700792114148 0.030845346529343703 -0.04209213939962006
leaf_weight=3.9432424157857886 4.4772500693798065 6.579539522528651 4.4966399371623975 4.2946413457393673 7.3077024072408738 4.964609786868099 5.6122308224439568 7.0708863735199037 7.2859093546867397 9.603052541613577 5.1364585459232321 4.8987676352262408 4.9632509499788267 7.3137949258089066 4.4950785785913467
leaf_count=17 20 28 21 20 33 21 25 33 33 42 22 21 22 35 20
internal_value=0 -0.00120231 -0.0245737 0.00143497 -0.00739725 0.00199714 0.00519596 -0.000915542 0.00670888 -0.0023814 0.0110762 -0.0169557 0.0196539 0.0109419 -0.0228642
internal_weight=0 88.4998 8.97389 79.5259 23.7506 17.1711 55.7753 39.2036 29.0963 22.0254 14.7395 9.86338 16.5717 12.277 10.1073
internal_count=413 396 41 355 103 75 252 175 130 97 64 42 77 57 45
is_linear=0
shrinkage=0.05


Tree=40
num_leaves=12
num_cat=0
split_feature=10 5 8 5 5 3 5 8 8 4 3
split_gain=1.14171 1.19316 1.88598 1.02438 1.32124 1.32985 2.58517 1.8094 1.65681 4.18948 1.89457
threshold=1.6844492782615879 -1.1845130521560205 -1.2690886042652572 -0.9495417893989172 -0.46345003620380981 4.5000000000000009 0.37792472597111015 1.236467741285765 0.56255948282721413 0.37592725771618413 1.0000000180025095e-35
decision_type=2 2 2 2 2 2 2 2 2 2 2
left_child=1 2 -1 -3 -5 7 -7 8 10 -10 -6
right_child=-2 3 -4 4 5 6 -8 -9 9 -11 -12
leaf_value=0.0075962668361208635 0.019585417350145989 0.023818744670575293 -0.033186303165264996 -0.018884832927372031 0.022246834598372942 0.033434172162030318 -0.0080830562464504051 0.028868198743303916 0.012835154469143304 -0.048017647895587635 -0.0067720818023512507
leaf_weight=4.816512867808342 6.8857729434967032 4.527415305376052 6.890097647905348 8.7532661408185941 7.5713314712047604 8.3200372457504255 6.8254062533378592 4.1975469887256613 4.9873369187116605 6.5337841063737869 21.874843493103981
leaf_count=20 31 20 33 38 35 38 31 20 23 27 97
internal_value=0 -0.00158012 -0.0164069 0.000778474 -0.000731916 0.00190275 0.0147241 -0.00239673 -0.00560017 -0.0216753 0.000689391
internal_weight=0 85.2976 11.7066 73.591 69.0636 60.3103 15.1454 45.1648 40.9673 11.5211 29.4462
internal_count=413 382 53 329 309 271 69 202 182 50 132
is_linear=0
shrinkage=0.05


Tree=41
num_leaves=13
num_cat=0
split_feature=9 10 0 4 9 7 6 10 5 7 5 7
split_gain=1.18173 2.53325 1.46177 1.2652 2.89522 5.76975 1.85631 2.05166 2.48887 2.3922 1.05072 0.7861
threshold=1.7393692525108235 1.6844492782615879 7.5000000000000009 1.3476992189125241 -0.73572882705272702 -0.056643361376944597 0.73959647675183582 1.0000000180025095e-35 -0.020153736363088998 -0.34020920305888375 0.022641716991297401 0.42026282690631717
decision_type=2 2 2 2 2 2 2 2 2 2 2 2
left_child=1 2 3 4 5 -1 7 8 -6 -9 -8 -4
right_child=-2 -3 11 -5 6 -7 10 9 -10 -11 -12 -13
leaf_value=0.001713018961160329 -0.018238529677674722 0.036763314301439275 0.023834526806592454 0.018312939759701073 -0.010383274709130549 -0.064537812545247208 0.037718171318453605 0.0070555811803487099 0.022494499521048747 -0.03617338805393594 0.0041268522737526467 -0.0018537129631825619
leaf_weight=7.854437343776226 8.0987792462110502 4.8693108856678 8.522916451096533 6.0745056420564643 12.882471561431876 5.6506060734391124 4.4733282625675184 5.0981604903936377 10.405834525823609 8.5967134535312635 4.8539905101060867 4.5777844488620749
leaf_count=36 34 23 38 27 57 25 22 22 49 38 22 20
internal_value=0 0.00176189 -0.000395738 -0.00342864 -0.00563659 -0.0260068 0.000303765 -0.0047235 0.00430739 -0.0200806 0.0202371 0.0148583
internal_weight=0 83.8601 78.9907 65.89 59.8155 13.505 46.3105 36.9832 23.2883 13.6949 9.32732 13.1007
internal_count=413 379 356 298 271 61 210 166 106 60 44 58
is_linear=0
shrinkage=0.05


Tree=42
num_leaves=12
num_cat=0
split_feature=9 10 0 9 8 5 5 9 8 7 8
split_gain=1.06964 2.30595 1.32194 1.00148 1.64373 2.02902 2.80358 2.20343 1.73435 1.52895 0.721169
threshold=1.7393692525108235 1.6844492782615879 7.5000000000000009 -1.0530490936634387 0.73535647217556055 0.37792472597111015 0.19543845317693351 0.53355223939011942 0.16512640732601727 -0.056643361376944597 0.40704219241370226
decision_type=2 2 2 2 2 2 2 2 2 2 2
left_child=1 2 3 9 5 6 7 -5 -7 -1 -4
right_child=-2 -3 10 4 -6 8 -8 -9 -10 -11 -12
leaf_value=0.0021096182699524672 -0.017376875752375755 0.035210367919572029 0.025220794805261994 -0.011887682474623592 0.020246943907846721 -0.04672016479246105 0.035931857768730237 0.018613178641647039 -0.0033511509395689424 -0.034262163247481207 0.0017022201121762845
leaf_weight=5.6104233115911484 8.0759434849023801 4.8308622837066642 6.9164931625127775 23.847449868917469 8.1728637069463712 4.615317761898039 5.0105807781219474 7.8771443814039221 4.6056767702102661 5.957469277083872 6.1648190766572952
leaf_count=26 34 23 30 107 38 21 24 35 20 27 28
internal_value=0 0.0016784 -0.000377852 -0.00326804 -0.000414195 -0.00408858 0.00117509 -0.00431439 -0.0250583 -0.0166219 0.0141372
internal_weight=0 83.6091 78.7782 65.6969 54.129 45.9562 36.7352 31.7246 9.22099 11.5679 13.0813
internal_count=413 379 356 298 245 207 166 142 41 53 58
is_linear=0
shrinkage=0.05


Tree=43
num_leaves=16
num_cat=0
split_feature=8 5 8 7 2 5 7 4 10 0 0 0 8 4 5
split_gain=1.02478 1.81325 1.39225 1.07459 1.94748 1.71016 1.70254 2.31195 2.27592 2.66626 2.95717 2.05974 1.19825 1.18477 1.02391
threshold=-2.038035206865398 -1.2224637372061367 -0.88893522769889544 -0.44332405457958896 3.5000000000000004 -1.0000000180025095e-35 -0.056643361376944597 0.13794228762728347 -0.629920695351736 2.5000000000000004 4.5000000000000009 4.5000000000000009 0.33792339667436372 -0.4173559759134825 0.41264556548504622
decision_type=2 2 2 2 2 2 2 2 2 2 2 2 2 2 2
left_child=-1 2 -2 4 -3 13 7 -5 14 -10 -11 -9 -12 -6 -8
right_child=1 3 -4 6 5 -7 8 11 9 10 12 -13 -14 -15 -16
leaf_value=0.025122247325028508 -0.0050350082929122202 -0.030854305339684435 -0.045137554651824917 0.043966725778851336 0.0044967783345069888 0.024977122007016479 -0.006848794392428758 0.025447589269046764 0.033404878682891333 -0.028278966365097153 0.024770891224799127 -0.018779629369867282 -0.0039053004420471307 -0.027506481653920573 -0.039057532839562752
leaf_weight=3.8865455687046042 4.9242183715105057 6.5342718362808254 3.8614633530378324 5.8079946190118816 6.6969358026981389 5.2537633106112454 5.5535899549722618 5.6114337742328626 6.9904109984636369 7.2094688713550594 7.5127788484096509 4.9589565545320511 7.0720045268535614 5.0898677259683609 4.4403499215841293
leaf_count=17 21 28 20 28 29 24 25 27 33 33 33 22 31 22 20
internal_value=0 -0.00111618 -0.0226608 0.00128798 -0.00764698 0.00125196 0.00510691 0.0186239 -0.000602061 0.00653534 -0.00208295 0.00469898 0.0108661 -0.00932311 -0.0211593
internal_weight=0 87.5175 8.78568 78.7318 23.5748 17.0406 55.157 16.3784 38.7786 28.7847 21.7943 10.5704 14.5848 11.7868 9.99394
internal_count=413 396 41 355 103 75 252 77 175 130 97 49 64 51 45
is_linear=0
shrinkage=0.05


Tree=44
num_leaves=13
num_cat=0
split_feature=9 10 10 6 6 0 4 8 7 6 8 9
split_gain=1.0099 2.10183 1.33541 1.39692 1.51304 1.31412 1.43679 2.77867 1.14163 0.68981 0.672023 0.35062
threshold=1.7393692525108235 1.6844492782615879 0.65584040110011055 0.80726585530801875 0.71353871605408148 7.5000000000000009 -0.77433343104683183 -0.31870516284935224 -0.28865177729853114 0.26530483242372188 0.40704219241370226 -0.1645523471534461
decision_type=2 2 2 2 2 2 2 2 2 2 2 2
left_child=1 2 3 4 5 6 -1 -8 -4 -10 -7 -5
right_child=-2 -3 8 11 -6 10 7 -9 9 -11 -12 -13
leaf_value=-0.023089395468498836 -0.016927063722358832 0.033872042358104447 0.0064270854820005809 -0.024871044526738304 0.031318792542615388 0.032810486711492524 0.035233199758283339 -0.0034483356354716912 -0.037017211548002596 -0.010667550774896842 0.0069126338313236883 -0.0056639839392048641
leaf_weight=6.1926664412021557 8.0356812775135023 4.7664292007684699 4.6718904450535765 4.5608155429363251 5.2841863781213751 4.7961443513631803 5.6019309014081839 27.11310566216709 4.856130436062811 5.0843819081783295 5.2435329258441925 4.960122734308241
leaf_count=28 34 23 21 20 26 21 25 124 22 23 24 22
internal_value=0 0.00163536 -0.000325391 0.00279946 0.0059006 0.00315654 -0.0010051 0.00317526 -0.0139588 -0.0235399 0.0192845 -0.0148647
internal_weight=0 83.1313 78.3649 63.7525 54.2316 48.9474 38.9077 32.715 14.6124 9.94051 10.0397 9.52094
internal_count=413 379 356 290 248 222 177 149 66 45 45 42
is_linear=0
shrinkage=0.05


Tree=45
num_leaves=15
num_cat=0
split_feature=8 9 9 5 5 6 0 9 6 7 0 6 0 8
split_gain=0.954767 1.77543 1.62952 2.08787 2.20995 2.03423 2.96329 2.69789 2.86276 1.94752 3.35704 4.33897 0.787437 0.76759
threshold=-2.038035206865398 -1.2434412536298656 -0.1645523471534461 -1.1845130521560205 -0.66047061391079687 0.62405353784396478 4.5000000000000009 -0.35494450711987308 0.48669479928216003 -0.64955375762099932 2.5000000000000004 0.73959647675183582 5.5000000000000009 0.33792339667436372
decision_type=2 2 2 2 2 2 2 2 2 2 2 2 2 2
left_child=-1 -2 5 -4 -5 7 -7 8 12 -6 -11 -12 13 -3
right_child=1 2 3 4 9 6 -8 -9 -10 10 11 -13 -14 -15
leaf_value=0.024334906214987451 -0.031625738649678596 -0.030301324967478144 -0.036921593207630353 0.029931313277634236 -0.031700912442774454 0.013688834811634815 -0.040948082670823484 0.044578926812121354 0.040159451090474849 0.030537108026421806 -0.023721154202958714 0.023496006184415684 0.0082259509405483884 0.00032329021466232069
leaf_weight=3.859586924314498 4.5103758201003066 3.8979661613702792 4.7951819300651541 4.7722264230251303 6.2315763086080507 5.5428692549467069 4.493484303355217 6.1851103305816677 4.9273107051849356 6.5922775715589585 16.560144469141964 6.8897528499364844 7.4523654133081427 4.3068263530731201
leaf_count=17 22 20 21 21 27 26 19 29 24 30 72 32 33 20
internal_value=0 -0.00107818 0.000588923 -0.00570205 -0.00205483 0.00842422 -0.0107732 0.0156217 0.00692074 -0.00626298 -0.000986446 -0.0098484 -0.00353949 -0.014226
internal_weight=0 87.1575 82.6471 45.8412 41.046 36.8059 10.0364 26.7696 20.5845 36.2738 30.0422 23.4499 15.6572 8.20479
internal_count=413 396 374 203 182 171 45 126 97 161 134 104 73 40
is_linear=0
shrinkage=0.05


Tree=46
num_leaves=11
num_cat=0
split_feature=8 9 1 0 0 4 8 10 8 6
split_gain=1.84071 1.73687 1.32834 1.46733 2.66114 1.51152 1.23975 1.09681 1.1579 1.18444
threshold=-2.3317900887575873 1.7393692525108235 2.5000000000000004 2.5000000000000004 3.5000000000000004 -1.0000000180025095e-35 0.56255948282721413 -1.1442251339324745 -1.0962916149169109 0.73959647675183582
decision_type=2 2 2 2 2 2 2 2 2 2
left_child=-1 2 -2 6 5 -5 -4 -6 -9 -10
right_child=1 -3 3 4 7 -7 -8 8 9 -11
leaf_value=0.037762714813862668 -0.019784019251145916 -0.025176386261260709 0.036466267575726762 -0.0034129137655346691 0.025921034256686057 -0.045708479976889281 0.0022833494710025018 0.025879307644127814 -0.0050341443536985843 0.014924924294320772
leaf_weight=3.1159062534570685 7.1826659590005866 7.0315431356430045 5.483845151960848 3.924646757543087 5.126498818397514 4.5743761137127859 5.1374263763427734 4.4690948575735012 35.171178892254844 9.4250253736972791
leaf_count=14 32 30 27 20 23 23 25 19 156 44
internal_value=0 -0.00134537 0.000736369 0.00274683 -0.000164777 -0.0261774 0.0199323 0.00391484 0.00161556 -0.000815966
internal_weight=0 87.5263 80.4948 73.3121 62.6908 8.49902 10.6213 54.1918 49.0653 44.5962
internal_count=413 399 369 337 285 43 52 242 219 200
is_linear=0
shrinkage=0.05


Tree=47
num_leaves=10
num_cat=0
split_feature=12 12 7 9 1 12 5 0 9
split_gain=1.67317 1.58147 1.73934 1.5754 1.94193 1.69734 2.14886 1.72123 1.4721
threshold=-2.3317900887575873 -1.5455637872226113 -1.2940215796254069 -1.2434412536298656 2.5000000000000004 1.236467741285765 -0.83003750456025283 2.5000000000000004 -0.48187261376415769
decision_type=2 2 2 2 2 2 2 2 2
left_child=-1 -2 -3 -4 -5 6 8 -8 -6
right_child=1 2 3 4 5 -7 7 -9 -10
leaf_value=0.036130669516554838 -0.034414293301699553 -0.026993672477826067 -0.027996089590148068 -0.022243783387344694 0.0029254018440791926 0.033173087482710188 0.019861038796178308 -0.0043766626574945856 0.041167829456274813
leaf_weight=3.0943762958049765 3.4589042514562598 5.5385390892624846 4.1455334499478331 6.5843577980995169 4.4058805108070374 5.3698092848062506 8.82394383847714 43.114492639899254 5.8679228872060687
leaf_count=14 15 27 20 29 20 27 43 192 26
internal_value=0 -0.00128181 8.49322e-05 0.00200004 0.00367668 0.00620204 0.00387406 -0.000258862 0.0247677
internal_weight=0 87.3094 83.8505 78.3119 74.1664 67.582 62.2122 51.9384 10.2738
internal_count=413 399 384 357 337 308 281 235 46
is_linear=0
shrinkage=0.05


Tree=48
num_leaves=18
num_cat=0
split_feature=5 4 5 5 5 4 1 8 0 5 5 8 8 8 4 10 8
split_gain=0.967624 2.89604 1.63177 2.39389 1.53397 3.58608 2.85293 1.16543 1.43096 3.57066 1.17607 1.05528 1.10515 1.09109 1.45741 0.541887 0.431422
threshold=-0.3205293712278397 0.37592725771618413 -0.12593117767298781 -0.050837268956800193 0.37792472597111015 0.5742480661236008 3.5000000000000004 -0.16318787243584082 4.5000000000000009 -1.1845130521560205 -1.2434577331913077 1.236467741285765 -0.31870516284935224 0.16512640732601727 0.73290471284953351 -0.629920695351736 0.044168514782174956
decision_type=2 2 2 2 2 2 2 2 2 2 2 2 2 2 2 2 2
left_child=1 7 16 -4 5 6 -5 8 10 -10 -1 12 -6 -14 -15 -8 -2
right_child=2 -3 3 4 11 -7 15 -9 9 -11 -12 -13 13 14 -16 -17 -18
leaf_value=-0.0015503153855021749 0.013235109371944507 -0.040042008700693493 -0.039175193814753255 -0.032043909390050994 0.013451031895989889 0.051769871922968058 0.03020243572855846 0.018544909700116356 -0.018316145599119087 0.035431279269208846 -0.038353371756843474 0.015853543342530089 -0.034494698086372476 0.0080418825006441288 -0.026652618501462902 0.0054133066609465229 0.035915222658197327
leaf_weight=4.0289555490016937 4.2935985028743726 5.4687321335077277 3.5368804335594168 4.3020375519990948 4.4177789688110378 4.8196263164281836 4.343376025557518 6.3679311573505428 7.1353315711021441 5.4505957663059199 4.706503704190256 5.3853541314601889 4.9175968021154466 7.1428244113922101 5.2529440522193909 4.4769727140665037 4.0980532765388489
leaf_count=21 19 25 15 19 20 22 21 29 31 24 21 27 22 34 22 20 21
internal_value=0 -0.0067921 0.00395056 0.000434646 0.00354383 0.0148853 0.0013383 -0.000225138 -0.00583108 0.00496029 -0.0213791 -0.00396044 -0.00887069 -0.0145664 -0.00666058 0.0176201 0.0243109
internal_weight=0 33.158 56.987 48.5954 45.0585 17.942 13.1224 27.6893 21.3214 12.5859 8.73546 27.1165 21.7311 17.3134 12.3958 8.82035 8.39165
internal_count=413 151 262 222 207 82 60 126 97 55 42 125 98 78 56 41 40
is_linear=0
shrinkage=0.05


Tree=49
num_leaves=14
num_cat=0
split_feature=8 9 9 1 9 6 0 9 6 6 10 6 10
split_gain=1.55387 1.5145 1.68287 1.78022 1.34793 1.96342 3.46534 2.27977 3.16456 1.84435 2.7625 3.8142 2.27463
threshold=-2.3317900887575873 1.7393692525108235 -1.2434412536298656 2.5000000000000004 -0.1645523471534461 0.62405353784396478 4.5000000000000009 -0.35494450711987308 0.45114312577204579 0.73959647675183582 1.0000000180025095e-35 0.45114312577204579 0.91299262039047957
decision_type=2 2 2 2 2 2 2 2 2 2 2 2 2
left_child=-1 2 -2 -4 5 7 -7 8 -5 10 11 -6 -12
right_child=1 -3 3 4 9 6 -8 -9 -10 -11 12 -13 -14
leaf_value=0.034915694708988775 -0.029422369311918328 -0.023594068284145883 -0.023558670509031623 -0.0050797403983382575 0.026944452409940801 0.021260714773646106 -0.039411495746014685 0.047867524740142532 0.037391238194053149 0.018940892071950634 -0.042233568411129102 -0.024093357483479547 0.0016101536027631966
leaf_weight=3.0770857930183402 4.3784207031130782 6.9682594388723365 6.045356646180152 11.465522915124895 9.0069656223058718 4.9864350855350477 4.4570668935775757 5.480263456702235 7.1032701134681693 8.1251599639654142 7.7576797157525998 6.167138844728469 4.7816471308469772
leaf_count=14 22 30 27 55 42 24 19 26 34 39 33 27 21
internal_value=0 -0.00124015 0.000712926 0.00246341 0.00473241 0.0119442 -0.00737486 0.0195303 0.011167 -0.00200725 -0.00814892 0.0062014 -0.0255146
internal_weight=0 86.7232 79.7549 75.3765 69.3311 33.4926 9.4435 24.0491 18.5688 35.8386 27.7134 15.1741 12.5393
internal_count=413 399 369 347 320 158 43 115 89 162 123 69 54
is_linear=0
shrinkage=0.05


end of trees

feature_importances:
RH=109
temp=107
DMC=101
X=74
DC=72
ISI=60
wind=51
FFMC=44
day=21
Y=18
temp_rain_ratio=17
month=6

parameters:
[boosting: gbdt]
[objective: binary]
[metric: binary_logloss]
[tree_learner: serial]
[device_type: cpu]
[data_sample_strategy: bagging]
[data: ]
[valid: ]
[num_iterations: 50]
[learning_rate: 0.05]
[num_leaves: 20]
[num_threads: 4]
[seed: 0]
[deterministic: 0]
[force_col_wise: 0]
[force_row_wise: 0]
[histogram_pool_size: -1]
[max_depth: 8]
[min_data_in_leaf: 20]
[min_sum_hessian_in_leaf: 0.001]
[bagging_fraction: 1]
[pos_bagging_fraction: 1]
[neg_bagging_fraction: 1]
[bagging_freq: 0]
[bagging_seed: 3]
[feature_fraction: 0.8]
[feature_fraction_bynode: 1]
[feature_fraction_seed: 2]
[extra_trees: 0]
[extra_seed: 6]
[early_stopping_round: 0]
[early_stopping_min_delta: 0]
[first_metric_only: 0]
[max_delta_step: 0]
[lambda_l1: 0]
[lambda_l2: 0]
[linear_lambda: 0]
[min_gain_to_split: 0]
[drop_rate: 0.1]
[max_drop: 50]
[skip_drop: 0.5]
[xgboost_dart_mode: 0]
[uniform_drop: 0]
[drop_seed: 4]
[top_rate: 0.2]
[other_rate: 0.1]
[min_data_per_group: 100]
[max_cat_threshold: 32]
[cat_l2: 10]
[cat_smooth: 10]
[max_cat_to_onehot: 4]
[top_k: 20]
[monotone_constraints: ]
[monotone_constraints_method: basic]
[monotone_penalty: 0]
[feature_contri: ]
[forcedsplits_filename: ]
[refit_decay_rate: 0.9]
[cegb_tradeoff: 1]
[cegb_penalty_split: 0]
[cegb_penalty_feature_lazy: ]
[cegb_penalty_feature_coupled: ]
[path_smooth: 0]
[interaction_constraints: ]
[verbosity: -1]
[saved_feature_importance_type: 0]
[use_quantized_grad: 0]
[num_grad_quant_bins: 4]
[quant_train_renew_leaf: 0]
[stochastic_rounding: 1]
[linear_tree: 0]
[max_bin: 255]
[max_bin_by_feature: ]
[min_data_in_bin: 3]
[bin_construct_sample_cnt: 200000]
[data_random_seed: 1]
[is_enable_sparse: 1]
[enable_bundle: 1]
[use_missing: 1]
[zero_as_missing: 0]
[feature_pre_filter: 1]
[pre_partition: 0]
[two_round: 0]
[header: 0]
[label_column: ]
[weight_column: ]
[group_column: ]
[ignore_column: ]
[categorical_feature: ]
[forcedbins_filename: ]
[precise_float_parser: 0]
[parser_config_file: ]
[objective_seed: 5]
[num_class: 1]
[is_unbalance: 0]
[scale_pos_weight: 1]
[sigmoid: 1]
[boost_from_average: 1]
[reg_sqrt: 0]
[alpha: 0.9]
[fair_c: 1]
[poisson_max_delta_step: 0.7]
[tweedie_variance_power: 1.5]
[lambdarank_truncation_level: 30]
[lambdarank_norm: 1]
[label_gain: ]
[lambdarank_position_bias_regularization: 0]
[eval_at: ]
[multi_error_top_k: 1]
[auc_mu_weights: ]
[num_machines: 1]
[local_listen_port: 12400]
[time_out: 120]
[machine_list_filename: ]
[machines: ]
[gpu_platform_id: -1]
[gpu_device_id: -1]
[gpu_use_dp: 0]
[num_gpu: 1]

end of parameters

pandas_categorical:[]
